{"learner":{"attributes":{"scikit_learn":"{\"_estimator_type\": \"regressor\"}"},"feature_names":[],"feature_types":[],"gradient_booster":{"model":{"cats":{"enc":[],"feature_segments":[],"sorted_idx":[]},"gbtree_model_param":{"num_parallel_tree":"1","num_trees":"200"},"iteration_indptr":[0,1,2,3,4,5,6,7,8,9,10,11,12,13,14,15,16,17,18,19,20,21,22,23,24,25,26,27,28,29,30,31,32,33,34,35,36,37,38,39,40,41,42,43,44,45,46,47,48,49,50,51,52,53,54,55,56,57,58,59,60,61,62,63,64,65,66,67,68,69,70,71,72,73,74,75,76,77,78,79,80,81,82,83,84,85,86,87,88,89,90,91,92,93,94,95,96,97,98,99,100,101,102,103,104,105,106,107,108,109,110,111,112,113,114,115,116,117,118,119,120,121,122,123,124,125,126,127,128,129,130,131,132,133,134,135,136,137,138,139,140,141,142,143,144,145,146,147,148,149,150,151,152,153,154,155,156,157,158,159,160,161,162,163,164,165,166,167,168,169,170,171,172,173,174,175,176,177,178,179,180,181,182,183,184,185,186,187,188,189,190,191,192,193,194,195,196,197,198,199,200],"tree_info":[0,0,0,0,0,0,0,0,0,0,0,0,0,0,0,0,0,0,0,0,0,0,0,0,0,0,0,0,0,0,0,0,0,0,0,0,0,0,0,0,0,0,0,0,0,0,0,0,0,0,0,0,0,0,0,0,0,0,0,0,0,0,0,0,0,0,0,0,0,0,0,0,0,0,0,0,0,0,0,0,0,0,0,0,0,0,0,0,0,0,0,0,0,0,0,0,0,0,0,0,0,0,0,0,0,0,0,0,0,0,0,0,0,0,0,0,0,0,0,0,0,0,0,0,0,0,0,0,0,0,0,0,0,0,0,0,0,0,0,0,0,0,0,0,0,0,0,0,0,0,0,0,0,0,0,0,0,0,0,0,0,0,0,0,0,0,0,0,0,0,0,0,0,0,0,0,0,0,0,0,0,0,0,0,0,0,0,0,0,0,0,0,0,0,0,0,0,0,0,0],"trees":[{"base_weights":[1.8724737E-4,3.1840056E-1,-3.406432E-1,5.960826E-1,1.319848E-1,-6.704419E-1,-2.585105E-1,4.8157522E-1,7.6321316E-1,1.6592604E-1,-5.0252724E-1,-7.6250726E-1,-2.0010965E-1,-3.3952406E-1,-3.167821E-2,6.7704916E-1,3.6338457E-1,7.777816E-1,-2.949366E-2,3.7955648E-1,9.791528E-2,1.9495009E-1,-6.370791E-1,-8.475221E-1,-1.2836812E-1,8.995734E-2,-6.8271315E-1,-2.0111848E-1,-5.8968604E-1,1.278781E-2,-9.453629E-1,5.672433E-2,5.4175328E-3,3.1123862E-2,-4.768726E-2,6.714586E-2,3.336649E-2,3.4916867E-2,-9.0907095E-3,-3.393131E-3,2.5682325E-2,-1.1648114E-3,3.293923E-2,-6.867626E-2,-1.5855528E-2,-5.4634627E-2,-8.710737E-2,-3.9675344E-2,2.5198525E-3,3.599586E-2,-6.0294627E-4,-7.244108E-2,-2.9434422E-2,-8.994843E-3,-4.7970094E-2,-5.511804E-2,-1.9654728E-2,4.4402415E-3,-8.119478E-2,-8.637749E-2,-1.0943375E-2],"categories":[],"categories_nodes":[],"categories_segments":[],"categories_sizes":[],"default_left":[0,0,0,0,0,0,0,0,0,0,0,0,0,0,0,0,0,0,0,0,0,0,0,0,0,0,0,0,0,0,0,0,0,0,0,0,0,0,0,0,0,0,0,0,0,0,0,0,0,0,0,0,0,0,0,0,0,0,0,0,0],"id":0,"left_children":[1,3,5,7,9,11,13,15,17,19,21,23,25,27,29,31,33,35,-1,37,39,41,43,45,47,49,51,53,55,57,59,-1,-1,-1,-1,-1,-1,-1,-1,-1,-1,-1,-1,-1,-1,-1,-1,-1,-1,-1,-1,-1,-1,-1,-1,-1,-1,-1,-1,-1,-1],"loss_changes":[1.3589635E2,3.3464592E1,1.6214478E1,4.6082535E0,8.460934E0,5.0435715E0,8.920219E0,3.3811722E0,2.001686E0,5.338629E0,2.0011368E0,5.282322E0,3.0011497E0,1.2276726E1,5.2530913E0,1.0830746E0,2.694274E0,1.9363403E0,0E0,2.5473518E0,8.842875E0,1.8767413E-1,1.4815416E0,2.7516403E0,7.795355E-1,4.9474943E-1,2.2790384E-1,8.131655E0,4.1685143E0,5.499856E0,5.041189E-1,0E0,0E0,0E0,0E0,0E0,0E0,0E0,0E0,0E0,0E0,0E0,0E0,0E0,0E0,0E0,0E0,0E0,0E0,0E0,0E0,0E0,0E0,0E0,0E0,0E0,0E0,0E0,0E0,0E0,0E0],"parents":[2147483647,0,0,1,1,2,2,3,3,4,4,5,5,6,6,7,7,8,8,9,9,10,10,11,11,12,12,13,13,14,14,15,15,16,16,17,17,19,19,20,20,21,21,22,22,23,23,24,24,25,25,26,26,27,27,28,28,29,29,30,30],"right_children":[2,4,6,8,10,12,14,16,18,20,22,24,26,28,30,32,34,36,-1,38,40,42,44,46,48,50,52,54,56,58,60,-1,-1,-1,-1,-1,-1,-1,-1,-1,-1,-1,-1,-1,-1,-1,-1,-1,-1,-1,-1,-1,-1,-1,-1,-1,-1,-1,-1,-1,-1],"split_conditions":[3.463E0,2.4402E0,1.4814815E-1,4.074074E-1,1E0,1E0,4.347826E-1,1.67444E0,1E0,1E0,7E-1,1E0,1E0,4.4565E0,1E0,1E0,1E0,1E0,-2.949366E-2,1E0,3.6E-1,1E0,1E0,4.6395E0,1E0,4E-1,1E0,1E0,3.6363637E-1,1E0,1E0,5.672433E-2,5.4175328E-3,3.1123862E-2,-4.768726E-2,6.714586E-2,3.336649E-2,3.4916867E-2,-9.0907095E-3,-3.393131E-3,2.5682325E-2,-1.1648114E-3,3.293923E-2,-6.867626E-2,-1.5855528E-2,-5.4634627E-2,-8.710737E-2,-3.9675344E-2,2.5198525E-3,3.599586E-2,-6.0294627E-4,-7.244108E-2,-2.9434422E-2,-8.994843E-3,-4.7970094E-2,-5.511804E-2,-1.9654728E-2,4.4402415E-3,-8.119478E-2,-8.637749E-2,-1.0943375E-2],"split_indices":[2048,2048,2055,2055,341,1171,2055,2048,160,650,2051,448,561,2048,1700,43,1782,1893,0,718,2055,32,600,2048,1795,2051,1088,675,2055,635,94,0,0,0,0,0,0,0,0,0,0,0,0,0,0,0,0,0,0,0,0,0,0,0,0,0,0,0,0,0,0],"split_type":[0,0,0,0,0,0,0,0,0,0,0,0,0,0,0,0,0,0,0,0,0,0,0,0,0,0,0,0,0,0,0,0,0,0,0,0,0,0,0,0,0,0,0,0,0,0,0,0,0,0,0,0,0,0,0,0,0,0,0,0,0],"sum_hessian":[1.251E3,6.47E2,6.04E2,2.59E2,3.88E2,1.19E2,4.85E2,1.56E2,1.03E2,3.69E2,1.9E1,9.9E1,2E1,3.57E2,1.28E2,5.7E1,9.9E1,1.02E2,1E0,8.8E1,2.81E2,3E0,1.6E1,8.7E1,1.2E1,1.3E1,7E0,2.31E2,1.26E2,1.23E2,5E0,5.4E1,3E0,9.7E1,2E0,8.6E1,1.6E1,7.9E1,9E0,1.73E2,1.08E2,2E0,1E0,1E1,6E0,5.4E1,3.3E1,3E0,9E0,2E0,1.1E1,3E0,4E0,1.9E2,4.1E1,9.7E1,2.9E1,1.19E2,4E0,4E0,1E0],"tree_param":{"num_deleted":"0","num_feature":"2057","num_nodes":"61","size_leaf_vector":"1"}},{"base_weights":[-1.5900396E-2,-7.671718E-2,2.927333E-1,2.993403E-1,-1.4129187E-1,3.4208134E-1,-4.0142423E-1,4.05917E-1,-9.728214E-2,-3.6372995E-1,-1.5994399E-3,4.1923413E-1,-1.2203071E-1,-8.2494515E-1,-7.447427E-2,4.4257265E-1,-5.2567804E-1,3.7306745E-3,-6.644461E-2,-4.0190643E-1,3.0441374E-1,5.807568E-2,-3.1573284E-1,4.45118E-1,-3.3656168E-1,3.2697085E-1,-3.1797987E-1,-7.292079E-2,-1.5684843E-2,-2.0058226E-2,5.5440485E-2,3.7346732E-2,-5.015103E-2,-5.6757953E-2,8.3802985E-3,-9.762111E-3,2.918527E-2,-4.6726577E-2,-2.0460559E-2,3.411017E-2,-3.905466E-2,-8.657447E-3,1.31342E-2,-2.8281504E-2,4.4536438E-2,3.7430167E-2,-2.7954992E-2,-4.563213E-2,3.330553E-2,3.237858E-2,-1.1804828E-2,-1.4043908E-2,-6.750534E-2,-6.8043564E-3,1.7942952E-2],"categories":[],"categories_nodes":[],"categories_segments":[],"categories_sizes":[],"default_left":[0,0,0,0,0,0,0,0,0,0,0,0,0,0,0,0,0,0,0,0,0,0,0,0,0,0,0,0,0,0,0,0,0,0,0,0,0,0,0,0,0,0,0,0,0,0,0,0,0,0,0,0,0,0,0],"id":1,"left_children":[1,3,5,7,9,11,13,15,17,19,21,23,25,27,29,31,33,35,-1,37,39,41,43,45,47,49,51,-1,-1,-1,53,-1,-1,-1,-1,-1,-1,-1,-1,-1,-1,-1,-1,-1,-1,-1,-1,-1,-1,-1,-1,-1,-1,-1,-1],"loss_changes":[2.3259855E1,2.5176022E1,7.1254025E0,6.464636E0,2.7467878E1,6.890398E0,1.8771446E0,4.3304386E0,2.447416E0,8.820358E0,1.0216134E1,3.3581314E0,2.5674515E0,1.479249E-1,2.1998191E-1,3.3024673E0,6.5367556E-1,1.4067878E0,0E0,8.450459E0,2.0448384E0,8.098753E0,3.0648403E0,3.0387459E0,1.2937908E0,3.9182454E-1,1.3497789E0,0E0,0E0,0E0,1.61409E-1,0E0,0E0,0E0,0E0,0E0,0E0,0E0,0E0,0E0,0E0,0E0,0E0,0E0,0E0,0E0,0E0,0E0,0E0,0E0,0E0,0E0,0E0,0E0,0E0],"parents":[2147483647,0,0,1,1,2,2,3,3,4,4,5,5,6,6,7,7,8,8,9,9,10,10,11,11,12,12,13,13,14,14,15,15,16,16,17,17,19,19,20,20,21,21,22,22,23,23,24,24,25,25,26,26,30,30],"right_children":[2,4,6,8,10,12,14,16,18,20,22,24,26,28,30,32,34,36,-1,38,40,42,44,46,48,50,52,-1,-1,-1,54,-1,-1,-1,-1,-1,-1,-1,-1,-1,-1,-1,-1,-1,-1,-1,-1,-1,-1,-1,-1,-1,-1,-1,-1],"split_conditions":[5.501E-1,5.1047164E-1,1E0,1E0,1E0,1E0,1E0,1E0,1E0,1E0,9.0194464E-1,1E0,6.60825E-1,1E0,8.3602166E-1,1E0,1E0,1E0,-6.644461E-2,3.995E-1,4.861E-1,1E0,1E0,1E0,1E0,1E0,1E0,-7.292079E-2,-1.5684843E-2,-2.0058226E-2,1E0,3.7346732E-2,-5.015103E-2,-5.6757953E-2,8.3802985E-3,-9.762111E-3,2.918527E-2,-4.6726577E-2,-2.0460559E-2,3.411017E-2,-3.905466E-2,-8.657447E-3,1.31342E-2,-2.8281504E-2,4.4536438E-2,3.7430167E-2,-2.7954992E-2,-4.563213E-2,3.330553E-2,3.237858E-2,-1.1804828E-2,-1.4043908E-2,-6.750534E-2,-6.8043564E-3,1.7942952E-2],"split_indices":[2049,2050,216,1160,926,1039,1057,1775,1737,932,2056,9,2050,1,2050,1765,8,552,0,2049,2049,1480,629,1617,180,1,305,0,0,0,80,0,0,0,0,0,0,0,0,0,0,0,0,0,0,0,0,0,0,0,0,0,0,0,0],"split_type":[0,0,0,0,0,0,0,0,0,0,0,0,0,0,0,0,0,0,0,0,0,0,0,0,0,0,0,0,0,0,0,0,0,0,0,0,0,0,0,0,0,0,0,0,0,0,0,0,0,0,0,0,0,0,0],"sum_hessian":[1.237E3,1.034E3,2.03E2,1.51E2,8.83E2,1.9E2,1.3E1,1.19E2,3.2E1,3.4E2,5.43E2,1.63E2,2.7E1,5E0,8E0,1.15E2,4E0,2.9E1,3E0,3.22E2,1.8E1,4.57E2,8.6E1,1.58E2,5E0,8E0,1.9E1,4E0,1E0,3E0,5E0,1.13E2,2E0,3E0,1E0,2.2E1,7E0,1.42E2,1.8E2,1.6E1,2E0,1.78E2,2.79E2,8.3E1,3E0,1.54E2,4E0,4E0,1E0,7E0,1E0,1.6E1,3E0,3E0,2E0],"tree_param":{"num_deleted":"0","num_feature":"2057","num_nodes":"55","size_leaf_vector":"1"}},{"base_weights":[-1.4578408E-3,2.8770396E-1,-2.9488358E-1,5.214312E-1,1.4624105E-1,-3.9371288E-1,-8.412317E-2,3.6881122E-1,6.549221E-1,1.748578E-1,-4.8687977E-1,-2.712358E-1,-6.5716517E-1,-1.466928E-1,2.4113029E-1,4.001924E-1,-3.7650818E-1,6.739856E-1,-2.658228E-2,-6.173083E-2,2.5196958E-1,-6.955769E-1,-8.9372896E-2,-2.3014341E-1,-7.7686673E-1,-7.247334E-1,-3.2572633E-1,-1.0616193E-1,-7.6430506E-1,1.0345117E-1,7.180627E-1,3.4294844E-2,-2.1344382E-2,-3.9629005E-2,-1.0572086E-2,5.8440037E-2,2.8164856E-2,-9.1292907E-4,-6.248568E-2,2.4622723E-2,1.0140733E-3,-1.5529854E-3,-6.74943E-2,1.115105E-2,-2.3663256E-2,-2.3971712E-2,1.8461371E-3,-8.505726E-2,-3.7880298E-2,-6.486871E-2,-3.4906004E-2,-3.234074E-2,1.344024E-2,-5.8992105E-3,-6.285989E-2,3.150123E-3,-7.76118E-2,1.3180692E-2,-2.1994371E-2,6.315184E-2,1.1602044E-2],"categories":[],"categories_nodes":[],"categories_segments":[],"categories_sizes":[],"default_left":[0,0,0,0,0,0,0,0,0,0,0,0,0,0,0,0,0,0,0,0,0,0,0,0,0,0,0,0,0,0,0,0,0,0,0,0,0,0,0,0,0,0,0,0,0,0,0,0,0,0,0,0,0,0,0,0,0,0,0,0,0],"id":2,"left_children":[1,3,5,7,9,11,13,15,17,19,21,23,25,27,29,31,33,35,-1,37,39,41,43,45,47,49,51,53,55,57,59,-1,-1,-1,-1,-1,-1,-1,-1,-1,-1,-1,-1,-1,-1,-1,-1,-1,-1,-1,-1,-1,-1,-1,-1,-1,-1,-1,-1,-1,-1],"loss_changes":[1.0427759E2,2.0390202E1,1.2672752E1,4.505455E0,7.0967455E0,1.3212502E1,4.0241656E0,2.7468548E0,2.5387459E0,6.783992E0,1.3481297E0,5.7428226E0,2.697647E0,4.0491996E0,2.0269518E0,2.147894E0,7.975179E-2,1.9442368E0,0E0,3.3211772E0,3.735794E0,1.085176E0,3.7177214E-1,4.6707993E0,1.3207846E0,2.3288422E0,9.984927E-1,3.3792725E0,1.6925187E0,6.48434E-1,1.7166138E-1,0E0,0E0,0E0,0E0,0E0,0E0,0E0,0E0,0E0,0E0,0E0,0E0,0E0,0E0,0E0,0E0,0E0,0E0,0E0,0E0,0E0,0E0,0E0,0E0,0E0,0E0,0E0,0E0,0E0,0E0],"parents":[2147483647,0,0,1,1,2,2,3,3,4,4,5,5,6,6,7,7,8,8,9,9,10,10,11,11,12,12,13,13,14,14,15,15,16,16,17,17,19,19,20,20,21,21,22,22,23,23,24,24,25,25,26,26,27,27,28,28,29,29,30,30],"right_children":[2,4,6,8,10,12,14,16,18,20,22,24,26,28,30,32,34,36,-1,38,40,42,44,46,48,50,52,54,56,58,60,-1,-1,-1,-1,-1,-1,-1,-1,-1,-1,-1,-1,-1,-1,-1,-1,-1,-1,-1,-1,-1,-1,-1,-1,-1,-1,-1,-1,-1,-1],"split_conditions":[3.43232E0,2.35392E0,3.6363637E-1,3.8709676E-1,1E0,4.6281E0,6E-1,1E0,1E0,2.1212122E-1,1E0,1E0,1E0,1E0,1E0,1E0,1E0,1E0,-2.658228E-2,1E0,1E0,7E-1,2.7634E0,1E0,7.863333E-1,1E0,1E0,1E0,4.1398E0,1E0,1E0,3.4294844E-2,-2.1344382E-2,-3.9629005E-2,-1.0572086E-2,5.8440037E-2,2.8164856E-2,-9.1292907E-4,-6.248568E-2,2.4622723E-2,1.0140733E-3,-1.5529854E-3,-6.74943E-2,1.115105E-2,-2.3663256E-2,-2.3971712E-2,1.8461371E-3,-8.505726E-2,-3.7880298E-2,-6.486871E-2,-3.4906004E-2,-3.234074E-2,1.344024E-2,-5.8992105E-3,-6.285989E-2,3.150123E-3,-7.76118E-2,1.3180692E-2,-2.1994371E-2,6.315184E-2,1.1602044E-2],"split_indices":[2048,2048,2055,2055,341,2048,2055,8,98,2055,1171,502,283,1738,1126,101,48,609,0,502,1476,2051,2048,1171,2056,1480,160,759,2048,39,694,0,0,0,0,0,0,0,0,0,0,0,0,0,0,0,0,0,0,0,0,0,0,0,0,0,0,0,0,0,0],"split_type":[0,0,0,0,0,0,0,0,0,0,0,0,0,0,0,0,0,0,0,0,0,0,0,0,0,0,0,0,0,0,0,0,0,0,0,0,0,0,0,0,0,0,0,0,0,0,0,0,0,0,0,0,0,0,0,0,0,0,0,0,0],"sum_hessian":[1.227E3,6.18E2,6.09E2,2.32E2,3.86E2,4.14E2,1.95E2,1.1E2,1.22E2,3.7E2,1.6E1,2.84E2,1.3E2,1.64E2,3.1E1,1.06E2,4E0,1.2E2,2E0,9.1E1,2.79E2,1E1,6E0,2.64E2,2E1,1.07E2,2.3E1,1.55E2,9E0,2.5E1,6E0,1.02E2,4E0,2E0,2E0,1.01E2,1.9E1,8.6E1,5E0,2.26E2,5.3E1,2E0,8E0,3E0,3E0,2.07E2,5.7E1,9E0,1.1E1,8.1E1,2.6E1,2E1,3E0,1.49E2,6E0,2E0,7E0,2.2E1,3E0,5E0,1E0],"tree_param":{"num_deleted":"0","num_feature":"2057","num_nodes":"61","size_leaf_vector":"1"}},{"base_weights":[-3.9616767E-3,3.40367E-1,-2.144286E-1,5.394698E-1,2.3171863E-1,-3.777928E-2,-3.4331465E-1,5.5917937E-1,-2.1489985E-1,2.6501518E-1,-3.2499847E-1,1.9169005E-2,-3.1186697E-1,-5.434978E-1,-1.7196198E-1,5.722694E-1,-3.3407214E-1,-2.4842681E-2,6.7053935E-3,1.7686705E-1,4.9075347E-1,7.513308E-2,-5.864579E-1,4.7225192E-2,-4.7028658E-1,-4.9882135E-1,2.979801E-1,-4.4822687E-1,-8.206908E-1,-2.1295547E-1,2.5324267E-1,4.7013775E-2,-1.4644871E-2,-4.2436898E-2,2.3482419E-3,1.0585408E-2,3.9375298E-2,4.3828286E-2,-8.472348E-3,2.2104025E-2,-8.066185E-3,-2.495345E-2,-6.828176E-2,-1.7669669E-3,1.9860007E-2,-5.3860452E-2,5.624214E-3,-4.365753E-2,-8.867903E-3,3.186321E-2,-4.0242005E-2,-3.950358E-2,-3.5131841E-3,-7.3262386E-2,-2.6379092E-2,-2.0294372E-2,1.720922E-2,3.9194033E-2,6.6400575E-3],"categories":[],"categories_nodes":[],"categories_segments":[],"categories_sizes":[],"default_left":[0,0,0,0,0,0,0,0,0,0,0,0,0,0,0,0,0,0,0,0,0,0,0,0,0,0,0,0,0,0,0,0,0,0,0,0,0,0,0,0,0,0,0,0,0,0,0,0,0,0,0,0,0,0,0,0,0,0,0],"id":3,"left_children":[1,3,5,7,9,11,13,15,17,19,21,23,25,27,29,31,33,-1,-1,35,37,39,41,43,45,47,49,51,53,55,57,-1,-1,-1,-1,-1,-1,-1,-1,-1,-1,-1,-1,-1,-1,-1,-1,-1,-1,-1,-1,-1,-1,-1,-1,-1,-1,-1,-1],"loss_changes":[9.1312454E1,1.0215183E1,1.779132E1,2.6180458E0,5.851063E0,5.172499E0,1.5410999E1,2.108776E0,1.6886526E-1,5.7633343E0,1.9271894E0,3.7985804E0,6.647412E0,5.125099E0,4.324432E0,1.992321E0,2.2968885E-1,0E0,0E0,2.9269958E0,2.851698E0,3.110383E-1,5.4028845E-1,3.6421251E0,1.6931751E0,7.4009037E-1,1.3252338E0,2.8708305E0,2.1256142E0,3.959525E0,8.457891E-1,0E0,0E0,0E0,0E0,0E0,0E0,0E0,0E0,0E0,0E0,0E0,0E0,0E0,0E0,0E0,0E0,0E0,0E0,0E0,0E0,0E0,0E0,0E0,0E0,0E0,0E0,0E0,0E0],"parents":[2147483647,0,0,1,1,2,2,3,3,4,4,5,5,6,6,7,7,8,8,9,9,10,10,11,11,12,12,13,13,14,14,15,15,16,16,19,19,20,20,21,21,22,22,23,23,24,24,25,25,26,26,27,27,28,28,29,29,30,30],"right_children":[2,4,6,8,10,12,14,16,18,20,22,24,26,28,30,32,34,-1,-1,36,38,40,42,44,46,48,50,52,54,56,58,-1,-1,-1,-1,-1,-1,-1,-1,-1,-1,-1,-1,-1,-1,-1,-1,-1,-1,-1,-1,-1,-1,-1,-1,-1,-1,-1,-1],"split_conditions":[3.0439E0,2.0645E0,3.8652E0,1E0,1E0,1E0,1E0,1E0,1E0,1E0,1E0,1E0,1E0,5.0309E0,1E0,1E0,1E0,-2.4842681E-2,6.7053935E-3,1E0,1E0,2.5952E0,1E0,1E0,1E0,8.57646E-1,1E0,1E0,1E0,1E0,4.4079E0,4.7013775E-2,-1.4644871E-2,-4.2436898E-2,2.3482419E-3,1.0585408E-2,3.9375298E-2,4.3828286E-2,-8.472348E-3,2.2104025E-2,-8.066185E-3,-2.495345E-2,-6.828176E-2,-1.7669669E-3,1.9860007E-2,-5.3860452E-2,5.624214E-3,-4.365753E-2,-8.867903E-3,3.186321E-2,-4.0242005E-2,-3.950358E-2,-3.5131841E-3,-7.3262386E-2,-2.6379092E-2,-2.0294372E-2,1.720922E-2,3.9194033E-2,6.6400575E-3],"split_indices":[2048,2048,2048,160,1610,1476,926,385,63,1,1114,1164,114,2048,652,307,4,0,0,1236,1773,2048,131,699,1295,2056,266,1795,1391,1809,2048,0,0,0,0,0,0,0,0,0,0,0,0,0,0,0,0,0,0,0,0,0,0,0,0,0,0,0,0],"split_type":[0,0,0,0,0,0,0,0,0,0,0,0,0,0,0,0,0,0,0,0,0,0,0,0,0,0,0,0,0,0,0,0,0,0,0,0,0,0,0,0,0,0,0,0,0,0,0,0,0,0,0,0,0,0,0,0,0,0,0],"sum_hessian":[1.258E3,4.77E2,7.81E2,1.67E2,3.1E2,3.3E2,4.51E2,1.63E2,4E0,2.93E2,1.7E1,2.74E2,5.6E1,2.07E2,2.44E2,1.61E2,2E0,3E0,1E0,2.12E2,8.1E1,7E0,1E1,2.6E2,1.4E1,4.3E1,1.3E1,1.56E2,5.1E1,2.23E2,2.1E1,1.58E2,3E0,1E0,1E0,1.87E2,2.5E1,7.4E1,7E0,3E0,4E0,6E0,4E0,1.94E2,6.6E1,1E1,4E0,3.8E1,5E0,1.2E1,1E0,1.4E2,1.6E1,4.2E1,9E0,2.04E2,1.9E1,8E0,1.3E1],"tree_param":{"num_deleted":"0","num_feature":"2057","num_nodes":"59","size_leaf_vector":"1"}},{"base_weights":[5.762984E-3,2.608402E-1,-2.605955E-1,4.3902647E-1,1.11090094E-1,-2.222006E-1,-7.273547E-1,4.505543E-1,-4.0058747E-2,1.6357508E-1,-1.4876984E-1,9.960064E-2,-2.6855916E-1,-8.1434214E-1,1.4881077E-1,4.5966893E-1,-4.5484614E-2,1.8410687E-1,-3.2742018E-1,-2.7345657E-1,2.0341676E-1,1.4923118E-1,-5.952948E-1,-2.1951503E-1,-5.631912E-1,-8.6379117E-1,-1.2862864E-1,2.7208483E-2,-9.2088066E-2,3.893823E-2,6.035843E-3,1.6993808E-2,-1.1223632E-2,-3.5916534E-4,-5.1968202E-2,-1.7318696E-2,-7.839396E-2,2.7791066E-2,-1.4623868E-2,-1.2954767E-2,2.0490263E-2,-6.765726E-2,1.6255582E-2,-1.9380298E-2,2.7344136E-2,-5.0124347E-2,3.0867279E-2,-7.600239E-2,-3.2869E-2,-1.2695602E-2,-1.5371799E-3,-1.05164E-2,-5.341673E-4],"categories":[],"categories_nodes":[],"categories_segments":[],"categories_sizes":[],"default_left":[0,0,0,0,0,0,0,0,0,0,0,0,0,0,0,0,0,0,0,0,0,0,0,0,0,0,0,0,0,0,0,0,0,0,0,0,0,0,0,0,0,0,0,0,0,0,0,0,0,0,0,0,0],"id":4,"left_children":[1,3,5,7,9,11,13,15,-1,17,19,21,23,25,27,29,-1,31,33,35,37,39,41,43,45,47,49,-1,51,-1,-1,-1,-1,-1,-1,-1,-1,-1,-1,-1,-1,-1,-1,-1,-1,-1,-1,-1,-1,-1,-1,-1,-1],"loss_changes":[8.485957E1,1.6975243E1,1.0788219E1,3.3781319E0,4.7706184E0,8.470476E0,3.6270905E0,2.9365273E0,0E0,2.9837728E0,2.6464922E0,2.5719745E0,7.029106E0,1.3130207E0,2.617337E-1,2.936718E0,0E0,2.5926094E0,1.2455943E0,1.5588408E0,9.53166E-1,2.303341E0,1.171638E0,5.5201035E0,4.451107E0,1.133007E0,1.0109432E-2,0E0,9.209372E-3,0E0,0E0,0E0,0E0,0E0,0E0,0E0,0E0,0E0,0E0,0E0,0E0,0E0,0E0,0E0,0E0,0E0,0E0,0E0,0E0,0E0,0E0,0E0,0E0],"parents":[2147483647,0,0,1,1,2,2,3,3,4,4,5,5,6,6,7,7,9,9,10,10,11,11,12,12,13,13,14,14,15,15,17,17,18,18,19,19,20,20,21,21,22,22,23,23,24,24,25,25,26,26,28,28],"right_children":[2,4,6,8,10,12,14,16,-1,18,20,22,24,26,28,30,-1,32,34,36,38,40,42,44,46,48,50,-1,52,-1,-1,-1,-1,-1,-1,-1,-1,-1,-1,-1,-1,-1,-1,-1,-1,-1,-1,-1,-1,-1,-1,-1,-1],"split_conditions":[3.463E0,2.5051E0,5.56682E0,1E0,1E0,2.3005E-1,1.0158867E0,1E0,-4.0058747E-2,1E0,6.112E-1,1E0,1E0,1E0,1E0,1E0,-4.5484614E-2,1E0,1E0,1E0,1E0,2E-1,1E0,1E0,1E0,1E0,1E0,2.7208483E-2,1E0,3.893823E-2,6.035843E-3,1.6993808E-2,-1.1223632E-2,-3.5916534E-4,-5.1968202E-2,-1.7318696E-2,-7.839396E-2,2.7791066E-2,-1.4623868E-2,-1.2954767E-2,2.0490263E-2,-6.765726E-2,1.6255582E-2,-1.9380298E-2,2.7344136E-2,-5.0124347E-2,3.0867279E-2,-7.600239E-2,-3.2869E-2,-1.2695602E-2,-1.5371799E-3,-1.05164E-2,-5.341673E-4],"split_indices":[2048,2048,2048,278,350,2049,2050,902,0,1086,2049,1970,675,800,841,216,0,383,101,401,1039,2053,29,214,1322,456,79,0,41,0,0,0,0,0,0,0,0,0,0,0,0,0,0,0,0,0,0,0,0,0,0,0,0],"split_type":[0,0,0,0,0,0,0,0,0,0,0,0,0,0,0,0,0,0,0,0,0,0,0,0,0,0,0,0,0,0,0,0,0,0,0,0,0,0,0,0,0,0,0,0,0,0,0,0,0,0,0,0,0],"sum_hessian":[1.247E3,6.37E2,6.1E2,2.9E2,3.47E2,5.65E2,4.5E1,2.87E2,3E0,2.89E2,5.8E1,7.1E1,4.94E2,4.1E1,4E0,2.85E2,2E0,2.78E2,1.1E1,4.3E1,1.5E1,6.7E1,4E0,4.25E2,6.9E1,3.8E1,3E0,2E0,2E0,2.66E2,1.9E1,2.56E2,2.2E1,6E0,5E0,4.1E1,2E0,1.1E1,4E0,1.7E1,5E1,3E0,1E0,4.09E2,1.6E1,6.5E1,4E0,3.1E1,7E0,2E0,1E0,1E0,1E0],"tree_param":{"num_deleted":"0","num_feature":"2057","num_nodes":"53","size_leaf_vector":"1"}},{"base_weights":[4.224528E-3,-1.03931315E-1,1.8500338E-1,1.02628715E-1,-2.0779252E-1,2.0912856E-1,-5.7360226E-1,-7.570166E-2,2.6378942E-1,-3.817998E-1,-9.1319576E-2,2.2196342E-1,-8.0759287E-1,3.7920766E-2,-7.712356E-1,1.697035E-1,-2.2506605E-1,6.771296E-1,2.016611E-1,-6.2644184E-1,-2.9267475E-1,-1.4582635E-1,1.473069E-1,1.6955952E-1,4.5389083E-1,-1.123116E-2,-7.303645E-2,-8.914278E-1,-7.34522E-2,-5.670397E-3,2.3079831E-2,-5.2520833E-3,-3.6009777E-2,6.664557E-2,3.42901E-2,1.8288016E-2,-5.3092994E-2,-5.5941824E-2,7.762305E-3,-3.33946E-2,-1.1335247E-2,2.9092977E-2,-1.4094125E-2,3.6890872E-3,3.0469019E-2,8.197363E-3,3.1037642E-2,4.2118087E-2,4.268736E-3,-2.1583548E-2,-7.996731E-2,-1.6181082E-2,7.3668193E-3],"categories":[],"categories_nodes":[],"categories_segments":[],"categories_sizes":[],"default_left":[0,0,0,0,0,0,0,0,0,0,0,0,0,0,0,0,0,0,0,0,0,0,0,0,0,0,0,0,0,0,0,0,0,0,0,0,0,0,0,0,0,0,0,0,0,0,0,0,0,0,0,0,0],"id":5,"left_children":[1,3,5,7,9,11,13,15,17,19,21,23,25,-1,27,29,31,33,35,37,39,41,43,45,47,-1,-1,49,51,-1,-1,-1,-1,-1,-1,-1,-1,-1,-1,-1,-1,-1,-1,-1,-1,-1,-1,-1,-1,-1,-1,-1,-1],"loss_changes":[2.496795E1,1.7162731E1,8.868071E0,7.722249E0,1.07472515E1,6.234215E0,3.4712186E0,4.730008E0,3.4843493E0,4.4608517E0,4.183645E0,5.5016785E0,2.9362106E-1,0E0,1.0248094E0,1.4208672E0,2.8406358E0,3.4045315E-1,3.0422845E0,3.0185528E0,2.9170122E0,4.0999346E0,1.4004942E0,5.47005E0,2.4140167E0,0E0,0E0,4.6993446E-1,8.259478E-2,0E0,0E0,0E0,0E0,0E0,0E0,0E0,0E0,0E0,0E0,0E0,0E0,0E0,0E0,0E0,0E0,0E0,0E0,0E0,0E0,0E0,0E0,0E0,0E0],"parents":[2147483647,0,0,1,1,2,2,3,3,4,4,5,5,6,6,7,7,8,8,9,9,10,10,11,11,12,12,14,14,15,15,16,16,17,17,18,18,19,19,20,20,21,21,22,22,23,23,24,24,27,27,28,28],"right_children":[2,4,6,8,10,12,14,16,18,20,22,24,26,-1,28,30,32,34,36,38,40,42,44,46,48,-1,-1,50,52,-1,-1,-1,-1,-1,-1,-1,-1,-1,-1,-1,-1,-1,-1,-1,-1,-1,-1,-1,-1,-1,-1,-1,-1],"split_conditions":[3.6363637E-1,5.890433E-1,1E0,1.7857143E-1,4.165E-1,1E0,1E0,4.5226666E-1,3.9885834E-1,1E0,1E0,6E-1,1E0,3.7920766E-2,1E0,2.465E-1,1E0,2.185E-1,1E0,1E0,2.3809524E-1,1E0,4.9885E-1,5.62E-1,7.9572E-1,-1.123116E-2,-7.303645E-2,1E0,1E0,-5.670397E-3,2.3079831E-2,-5.2520833E-3,-3.6009777E-2,6.664557E-2,3.42901E-2,1.8288016E-2,-5.3092994E-2,-5.5941824E-2,7.762305E-3,-3.33946E-2,-1.1335247E-2,2.9092977E-2,-1.4094125E-2,3.6890872E-3,3.0469019E-2,8.197363E-3,3.1037642E-2,4.2118087E-2,4.268736E-3,-2.1583548E-2,-7.996731E-2,-1.6181082E-2,7.3668193E-3],"split_indices":[2055,2050,1086,2055,2049,635,458,2050,2050,875,309,2055,80,0,9,2049,1160,2049,1737,245,2055,1750,2049,2049,2050,0,0,1750,626,0,0,0,0,0,0,0,0,0,0,0,0,0,0,0,0,0,0,0,0,0,0,0,0],"split_type":[0,0,0,0,0,0,0,0,0,0,0,0,0,0,0,0,0,0,0,0,0,0,0,0,0,0,0,0,0,0,0,0,0,0,0,0,0,0,0,0,0,0,0,0,0,0,0,0,0,0,0,0,0],"sum_hessian":[1.275E3,7.98E2,4.77E2,2.67E2,5.31E2,4.63E2,1.4E1,1.27E2,1.4E2,2.12E2,3.19E2,4.58E2,5E0,2E0,1.2E1,4.8E1,7.9E1,1.7E1,1.23E2,5.5E1,1.57E2,2.6E2,5.9E1,3.75E2,8.3E1,1E0,4E0,1E1,2E0,1.6E1,3.2E1,4.7E1,3.2E1,9E0,8E0,1.2E2,3E0,5E1,5E0,8.5E1,7.2E1,1.4E1,2.46E2,4.2E1,1.7E1,2.88E2,8.7E1,7E1,1.3E1,2E0,8E0,1E0,1E0],"tree_param":{"num_deleted":"0","num_feature":"2057","num_nodes":"53","size_leaf_vector":"1"}},{"base_weights":[-7.1209674E-3,2.922897E-1,-1.8860784E-1,4.0286052E-1,1.4175743E-1,-3.4662493E-2,-3.0338356E-1,4.139212E-1,-5.7856128E-2,1.7856196E-1,-5.1019E-1,4.4521037E-1,-6.5117255E-2,-4.2219436E-1,-8.701822E-2,4.2414704E-1,-2.9566165E-2,6.737795E-2,3.9813995E-1,-7.3674214E-1,7.046169E-2,5.3860044E-1,-6.2999904E-2,-9.9864036E-2,3.2361108E-1,-3.392439E-1,-6.793532E-1,-1.2591374E-1,6.628739E-1,5.5861626E-2,3.142509E-2,4.2807106E-2,1.8565423E-3,3.3428438E-2,-1.1362231E-2,-6.5649495E-2,-5.9842393E-3,8.191109E-5,7.461306E-3,4.70197E-2,9.067023E-3,-1.832933E-2,1.7414011E-2,-9.848661E-3,2.4354799E-2,-1.0023398E-2,4.240676E-2,-3.0213179E-2,3.2794992E-3,-6.0776904E-2,-2.4751637E-2,3.6781302E-3,-2.0955574E-2,6.339366E-2,1.4625781E-2],"categories":[],"categories_nodes":[],"categories_segments":[],"categories_sizes":[],"default_left":[0,0,0,0,0,0,0,0,0,0,0,0,0,0,0,0,0,0,0,0,0,0,0,0,0,0,0,0,0,0,0,0,0,0,0,0,0,0,0,0,0,0,0,0,0,0,0,0,0,0,0,0,0,0,0],"id":6,"left_children":[1,3,5,7,9,11,13,15,-1,17,19,21,23,25,27,29,-1,31,33,35,37,39,41,43,45,47,49,51,53,-1,-1,-1,-1,-1,-1,-1,-1,-1,-1,-1,-1,-1,-1,-1,-1,-1,-1,-1,-1,-1,-1,-1,-1,-1,-1],"loss_changes":[6.781599E1,7.782444E0,1.3718439E1,3.6746597E0,4.914019E0,4.895591E0,1.1402676E1,2.3119583E0,0E0,4.6361647E0,1.4989383E0,9.831674E-1,4.273533E0,5.891659E0,4.7210884E0,2.0104446E0,0E0,2.6319773E0,7.409277E-1,3.8278484E-1,6.238522E-3,2.8868437E-1,2.3637228E-1,2.7533908E0,2.4762683E0,3.2148628E0,1.8162575E0,3.5661693E0,3.5264134E-1,0E0,0E0,0E0,0E0,0E0,0E0,0E0,0E0,0E0,0E0,0E0,0E0,0E0,0E0,0E0,0E0,0E0,0E0,0E0,0E0,0E0,0E0,0E0,0E0,0E0,0E0],"parents":[2147483647,0,0,1,1,2,2,3,3,4,4,5,5,6,6,7,7,9,9,10,10,11,11,12,12,13,13,14,14,15,15,17,17,18,18,19,19,20,20,21,21,22,22,23,23,24,24,25,25,26,26,27,27,28,28],"right_children":[2,4,6,8,10,12,14,16,-1,18,20,22,24,26,28,30,-1,32,34,36,38,40,42,44,46,48,50,52,54,-1,-1,-1,-1,-1,-1,-1,-1,-1,-1,-1,-1,-1,-1,-1,-1,-1,-1,-1,-1,-1,-1,-1,-1,-1,-1],"split_conditions":[3.01308E0,2.4402E0,3.8652E0,1E0,1E0,2.0995E-1,1E0,1E0,-5.7856128E-2,6E-1,1E0,1E0,1E0,5.0464E0,1E0,4E-1,-2.9566165E-2,2.2445E-1,1E0,1E0,1E0,1E0,1E0,1E0,6.4889E-1,1E0,1E0,4.6666667E-1,4.88692E0,5.5861626E-2,3.142509E-2,4.2807106E-2,1.8565423E-3,3.3428438E-2,-1.1362231E-2,-6.5649495E-2,-5.9842393E-3,8.191109E-5,7.461306E-3,4.70197E-2,9.067023E-3,-1.832933E-2,1.7414011E-2,-9.848661E-3,2.4354799E-2,-1.0023398E-2,4.240676E-2,-3.0213179E-2,3.2794992E-3,-6.0776904E-2,-2.4751637E-2,3.6781302E-3,-2.0955574E-2,6.339366E-2,1.4625781E-2],"split_indices":[2048,2048,2048,2028,862,2049,1480,1499,0,2052,600,1097,1134,2048,1730,2054,0,2049,1399,76,131,653,59,237,2050,980,283,2053,2048,0,0,0,0,0,0,0,0,0,0,0,0,0,0,0,0,0,0,0,0,0,0,0,0,0,0],"split_type":[0,0,0,0,0,0,0,0,0,0,0,0,0,0,0,0,0,0,0,0,0,0,0,0,0,0,0,0,0,0,0,0,0,0,0,0,0,0,0,0,0,0,0,0,0,0,0,0,0,0,0,0,0,0,0],"sum_hessian":[1.246E3,4.7E2,7.76E2,2.7E2,2E2,3.32E2,4.44E2,2.68E2,2E0,1.9E2,1E1,1.9E1,3.13E2,2.86E2,1.58E2,2.65E2,3E0,1.27E2,6.3E1,7E0,3E0,1.6E1,3E0,2.88E2,2.5E1,2.18E2,6.8E1,1.51E2,7E0,2.5E1,2.4E2,1E1,1.17E2,6.1E1,2E0,6E0,1E0,1E0,2E0,1.4E1,2E0,2E0,1E0,2.73E2,1.5E1,8E0,1.7E1,1.98E2,2E1,5.5E1,1.3E1,6.7E1,8.4E1,5E0,2E0],"tree_param":{"num_deleted":"0","num_feature":"2057","num_nodes":"55","size_leaf_vector":"1"}},{"base_weights":[4.416357E-3,2.7228212E-1,-1.5898056E-1,4.0684438E-1,1.9224958E-1,-1.709288E-2,-2.6695567E-1,4.2886803E-1,-2.33846E-2,2.1834517E-1,-3.198625E-1,4.613069E-2,-3.6692548E-1,-2.220272E-1,-5.164483E-1,6.1272216E-1,3.6283356E-1,1.3398652E-1,3.9569244E-1,-5.007699E-1,3.49602E-2,6.0980596E-2,-8.0656993E-1,-4.1076726E-1,1.273405E-1,-1.3090174E-1,-3.659327E-1,-5.496192E-1,2.995236E-2,5.144864E-2,-2.775474E-2,3.0816989E-2,-1.2810742E-2,1.2181588E-2,-3.762915E-2,3.395903E-2,-2.7514407E-2,5.2077705E-3,-5.2029904E-2,1.1535219E-2,-9.78666E-3,3.4491003E-2,2.9818357E-3,-7.479945E-2,-1.1715082E-2,-3.9016414E-2,-1.8543996E-3,2.0745182E-2,-1.6022263E-2,2.0173788E-2,-1.4087813E-2,-3.5518035E-2,9.5799165E-3,-2.28829E-2,-5.4972146E-2],"categories":[],"categories_nodes":[],"categories_segments":[],"categories_sizes":[],"default_left":[0,0,0,0,0,0,0,0,0,0,0,0,0,0,0,0,0,0,0,0,0,0,0,0,0,0,0,0,0,0,0,0,0,0,0,0,0,0,0,0,0,0,0,0,0,0,0,0,0,0,0,0,0,0,0],"id":7,"left_children":[1,3,5,7,9,11,13,15,-1,17,19,21,23,25,27,29,31,33,35,37,39,41,43,45,47,49,51,53,-1,-1,-1,-1,-1,-1,-1,-1,-1,-1,-1,-1,-1,-1,-1,-1,-1,-1,-1,-1,-1,-1,-1,-1,-1,-1,-1],"loss_changes":[5.510399E1,5.058769E0,1.1975941E1,2.8507862E0,4.0923634E0,7.514816E0,4.862276E0,1.8658848E0,0E0,4.2407246E0,9.803579E-1,3.6959913E0,1.1791196E0,4.908987E0,2.1856575E0,1.5061531E0,1.5714264E0,2.2373347E0,2.1053915E0,8.8889647E-1,1.2072627E-1,2.4761863E0,2.869618E-1,1.420064E0,2.6812136E-1,4.0784273E0,5.587137E0,2.1597805E0,0E0,0E0,0E0,0E0,0E0,0E0,0E0,0E0,0E0,0E0,0E0,0E0,0E0,0E0,0E0,0E0,0E0,0E0,0E0,0E0,0E0,0E0,0E0,0E0,0E0,0E0,0E0],"parents":[2147483647,0,0,1,1,2,2,3,3,4,4,5,5,6,6,7,7,9,9,10,10,11,11,12,12,13,13,14,14,15,15,16,16,17,17,18,18,19,19,20,20,21,21,22,22,23,23,24,24,25,25,26,26,27,27],"right_children":[2,4,6,8,10,12,14,16,-1,18,20,22,24,26,28,30,32,34,36,38,40,42,44,46,48,50,52,54,-1,-1,-1,-1,-1,-1,-1,-1,-1,-1,-1,-1,-1,-1,-1,-1,-1,-1,-1,-1,-1,-1,-1,-1,-1,-1,-1],"split_conditions":[2.9962E0,2.0501E0,3.8652E0,1E0,1E0,1E0,1E0,3.99E-1,-2.33846E-2,1E0,1E0,1E0,1E0,4.8692E0,1E0,1E0,1E0,1E0,1E0,4.3435E-1,1E0,1.9165E-1,1E0,1E0,1E0,2.205E-1,1E0,3.3505E-1,2.995236E-2,5.144864E-2,-2.775474E-2,3.0816989E-2,-1.2810742E-2,1.2181588E-2,-3.762915E-2,3.395903E-2,-2.7514407E-2,5.2077705E-3,-5.2029904E-2,1.1535219E-2,-9.78666E-3,3.4491003E-2,2.9818357E-3,-7.479945E-2,-1.1715082E-2,-3.9016414E-2,-1.8543996E-3,2.0745182E-2,-1.6022263E-2,2.0173788E-2,-1.4087813E-2,-3.5518035E-2,9.5799165E-3,-2.28829E-2,-5.4972146E-2],"split_indices":[2048,2048,2048,307,1086,350,675,2049,0,1,1171,195,225,2048,1322,203,750,510,1353,2049,1036,2049,9,692,34,2049,959,2049,0,0,0,0,0,0,0,0,0,0,0,0,0,0,0,0,0,0,0,0,0,0,0,0,0,0,0],"split_type":[0,0,0,0,0,0,0,0,0,0,0,0,0,0,0,0,0,0,0,0,0,0,0,0,0,0,0,0,0,0,0,0,0,0,0,0,0,0,0,0,0,0,0,0,0,0,0,0,0,0,0,0,0,0,0],"sum_hessian":[1.257E3,4.76E2,7.81E2,1.76E2,3E2,3.38E2,4.43E2,1.71E2,5E0,2.86E2,1.4E1,2.87E2,5.1E1,3.77E2,6.6E1,4.3E1,1.28E2,1.95E2,9.1E1,9E0,5E0,2.83E2,4E0,4.7E1,4E0,2.32E2,1.45E2,6.4E1,2E0,4.2E1,1E0,1.23E2,5E0,1.9E2,5E0,8.8E1,3E0,2E0,7E0,3E0,2E0,1.6E1,2.67E2,3E0,1E0,3.9E1,8E0,3E0,1E0,2.4E1,2.08E2,1.25E2,2E1,2.3E1,4.1E1],"tree_param":{"num_deleted":"0","num_feature":"2057","num_nodes":"55","size_leaf_vector":"1"}},{"base_weights":[-7.6707588E-3,-9.98847E-2,1.3806581E-1,3.378555E-2,-1.9442008E-1,4.442671E-1,1.01145044E-1,8.8671386E-2,-4.288949E-1,-2.4881133E-1,9.942638E-2,4.8367527E-1,-2.884997E-2,1.2076563E-1,-4.562823E-1,1.15980946E-1,-3.2438093E-1,-2.4142409E-2,-7.110145E-1,-4.854583E-1,-2.0641106E-1,1.3488679E-1,-5.28257E-1,5.0775164E-1,-2.7842687E-2,1.3467598E-1,-7.211718E-1,2.782315E-2,-6.067386E-1,1.0284306E-2,-5.9928834E-2,-5.39345E-2,1.8301992E-3,6.939067E-3,-3.9726254E-2,1.04278E-2,-6.493925E-2,-2.9460851E-2,-7.154089E-2,-1.8121667E-2,1.7836142E-2,5.930518E-3,4.6502814E-2,-5.972584E-2,5.067639E-3,4.2151336E-2,-1.6438875E-2,7.063986E-3,2.8650243E-2,-1.0507235E-2,-6.380695E-2,-5.636947E-2,-3.6479982E-3],"categories":[],"categories_nodes":[],"categories_segments":[],"categories_sizes":[],"default_left":[0,0,0,0,0,0,0,0,0,0,0,0,0,0,0,0,0,0,0,0,0,0,0,0,0,0,0,0,0,0,0,0,0,0,0,0,0,0,0,0,0,0,0,0,0,0,0,0,0,0,0,0,0],"id":8,"left_children":[1,3,5,7,9,11,13,15,17,19,21,23,-1,25,27,29,31,33,35,37,39,41,43,45,-1,47,49,-1,51,-1,-1,-1,-1,-1,-1,-1,-1,-1,-1,-1,-1,-1,-1,-1,-1,-1,-1,-1,-1,-1,-1,-1,-1],"loss_changes":[1.6852785E1,9.7114525E0,5.4493847E0,8.138909E0,7.2169456E0,1.8238287E0,4.8127184E0,3.2637808E0,3.8652477E0,3.712675E0,1.651566E0,1.1779432E0,0E0,5.0277276E0,2.0256827E0,3.0221295E0,2.2019038E0,8.2883286E-1,1.8007526E0,2.4015913E0,2.8480463E0,1.8011417E0,5.6391716E-1,7.771883E-1,0E0,4.268959E0,2.1074891E-1,0E0,6.818824E-1,0E0,0E0,0E0,0E0,0E0,0E0,0E0,0E0,0E0,0E0,0E0,0E0,0E0,0E0,0E0,0E0,0E0,0E0,0E0,0E0,0E0,0E0,0E0,0E0],"parents":[2147483647,0,0,1,1,2,2,3,3,4,4,5,5,6,6,7,7,8,8,9,9,10,10,11,11,13,13,14,14,15,15,16,16,17,17,18,18,19,19,20,20,21,21,22,22,23,23,25,25,26,26,28,28],"right_children":[2,4,6,8,10,12,14,16,18,20,22,24,-1,26,28,30,32,34,36,38,40,42,44,46,-1,48,50,-1,52,-1,-1,-1,-1,-1,-1,-1,-1,-1,-1,-1,-1,-1,-1,-1,-1,-1,-1,-1,-1,-1,-1,-1,-1],"split_conditions":[3.529412E-1,6.6738933E-1,5.5298E-1,1E0,1E0,1E0,1E0,1E0,1E0,1.2E-1,1E0,1E0,-2.884997E-2,1E0,1E0,1E0,1E0,1E0,4.7542334E-1,1E0,1E0,1E0,1E0,1E0,-2.7842687E-2,9E-1,1E0,2.782315E-2,1E0,1.0284306E-2,-5.9928834E-2,-5.39345E-2,1.8301992E-3,6.939067E-3,-3.9726254E-2,1.04278E-2,-6.493925E-2,-2.9460851E-2,-7.154089E-2,-1.8121667E-2,1.7836142E-2,5.930518E-3,4.6502814E-2,-5.972584E-2,5.067639E-3,4.2151336E-2,-1.6438875E-2,7.063986E-3,2.8650243E-2,-1.0507235E-2,-6.380695E-2,-5.636947E-2,-3.6479982E-3],"split_indices":[2055,2056,2050,162,140,425,1086,1737,650,2055,1027,78,0,635,458,1887,1440,1138,2050,1357,806,1951,102,1343,0,2051,80,0,9,0,0,0,0,0,0,0,0,0,0,0,0,0,0,0,0,0,0,0,0,0,0,0,0],"split_type":[0,0,0,0,0,0,0,0,0,0,0,0,0,0,0,0,0,0,0,0,0,0,0,0,0,0,0,0,0,0,0,0,0,0,0,0,0,0,0,0,0,0,0,0,0,0,0,0,0,0,0,0,0],"sum_hessian":[1.252E3,7.67E2,4.85E2,3.18E2,4.49E2,5.1E1,4.34E2,2.85E2,3.3E1,3.79E2,7E1,4.9E1,2E0,4.2E2,1.4E1,2.68E2,1.7E1,1.4E1,1.9E1,5.6E1,3.23E2,6.7E1,3E0,4.8E1,1E0,4.14E2,6E0,2E0,1.2E1,2.65E2,3E0,8E0,9E0,1.2E1,2E0,2E0,1.7E1,4.5E1,1.1E1,3.09E2,1.4E1,6E1,7E0,2E0,1E0,4.7E1,1E0,3.44E2,7E1,1E0,5E0,1E1,2E0],"tree_param":{"num_deleted":"0","num_feature":"2057","num_nodes":"53","size_leaf_vector":"1"}},{"base_weights":[5.5443775E-4,2.655815E-1,-1.5996525E-1,1.6223402E-1,3.983856E-1,-6.1399154E-2,-2.9511747E-1,5.215306E-1,1.260803E-1,4.2695615E-1,-1.4430863E-1,-2.5645217E-1,7.1116295E-3,-3.333686E-1,2.333946E-2,5.530347E-1,-8.122525E-3,1.8702026E-1,-5.880645E-2,4.4313413E-1,-4.5632696E-1,4.5647636E-2,-5.328596E-2,-3.229126E-1,1.03339165E-1,3.5682267E-1,-3.1125378E-2,-2.8171733E-1,-5.9662056E-1,1.1400022E-1,-5.8435734E-2,4.6717323E-2,-5.098605E-3,2.2389181E-2,7.037708E-3,-9.720336E-3,3.537757E-2,3.6259238E-2,-2.7571646E-2,-8.934402E-3,-4.2718604E-2,-6.2377793E-3,2.5510252E-2,-9.397247E-3,-3.507571E-2,2.4634438E-2,-8.926883E-3,3.842036E-2,8.063656E-3,-4.9139326E-3,3.0178089E-2,-1.9930705E-2,-6.4310186E-2,-5.6036226E-2,-1.5450262E-2,-1.9573411E-2,1.9084852E-2],"categories":[],"categories_nodes":[],"categories_segments":[],"categories_sizes":[],"default_left":[0,0,0,0,0,0,0,0,0,0,0,0,0,0,0,0,0,0,0,0,0,0,0,0,0,0,0,0,0,0,0,0,0,0,0,0,0,0,0,0,0,0,0,0,0,0,0,0,0,0,0,0,0,0,0,0,0],"id":9,"left_children":[1,3,5,7,9,11,13,15,17,19,21,23,25,27,29,31,-1,33,35,37,39,41,-1,43,45,47,49,51,53,55,-1,-1,-1,-1,-1,-1,-1,-1,-1,-1,-1,-1,-1,-1,-1,-1,-1,-1,-1,-1,-1,-1,-1,-1,-1,-1,-1],"loss_changes":[5.3007347E1,6.3861046E0,1.0319307E1,3.3895602E0,3.2401543E0,6.0152793E0,3.9910793E0,5.2724695E-1,2.7488766E0,2.9887161E0,1.1206445E0,2.831061E0,4.477322E0,3.80233E0,2.543469E0,4.7600603E-1,0E0,1.6582747E0,1.9699373E0,1.6848297E0,4.7419906E-2,3.2885414E-1,0E0,2.2983685E0,8.698255E-1,9.9445486E-1,3.7596812E0,3.9851246E0,1.8338127E0,1.5326701E0,0E0,0E0,0E0,0E0,0E0,0E0,0E0,0E0,0E0,0E0,0E0,0E0,0E0,0E0,0E0,0E0,0E0,0E0,0E0,0E0,0E0,0E0,0E0,0E0,0E0,0E0,0E0],"parents":[2147483647,0,0,1,1,2,2,3,3,4,4,5,5,6,6,7,7,8,8,9,9,10,10,11,11,12,12,13,13,14,14,15,15,17,17,18,18,19,19,20,20,21,21,23,23,24,24,25,25,26,26,27,27,28,28,29,29],"right_children":[2,4,6,8,10,12,14,16,18,20,22,24,26,28,30,32,-1,34,36,38,40,42,-1,44,46,48,50,52,54,56,-1,-1,-1,-1,-1,-1,-1,-1,-1,-1,-1,-1,-1,-1,-1,-1,-1,-1,-1,-1,-1,-1,-1,-1,-1,-1,-1],"split_conditions":[2.9962E0,3.7931034E-1,4.241E0,3.83575E-1,1E0,1.904762E-1,5.185185E-1,1E0,1E0,1E0,1E0,1E0,2.3005E-1,5.5228E0,1E0,1E0,-8.122525E-3,2.4662E0,1E0,1E0,1E0,1E0,-5.328596E-2,3.58572E0,1E0,1E0,1E0,1E0,1E0,1.971E-1,-5.8435734E-2,4.6717323E-2,-5.098605E-3,2.2389181E-2,7.037708E-3,-9.720336E-3,3.537757E-2,3.6259238E-2,-2.7571646E-2,-8.934402E-3,-4.2718604E-2,-6.2377793E-3,2.5510252E-2,-9.397247E-3,-3.507571E-2,2.4634438E-2,-8.926883E-3,3.842036E-2,8.063656E-3,-4.9139326E-3,3.0178089E-2,-1.9930705E-2,-6.4310186E-2,-5.6036226E-2,-1.5450262E-2,-1.9573411E-2,1.9084852E-2],"split_indices":[2048,2055,2048,2050,1309,2055,2055,13,389,1751,322,1171,2049,2048,1997,50,0,2048,249,217,455,967,0,2048,695,1683,1186,222,314,2049,0,0,0,0,0,0,0,0,0,0,0,0,0,0,0,0,0,0,0,0,0,0,0,0,0,0,0],"split_type":[0,0,0,0,0,0,0,0,0,0,0,0,0,0,0,0,0,0,0,0,0,0,0,0,0,0,0,0,0,0,0,0,0,0,0,0,0,0,0,0,0,0,0,0,0,0,0,0,0,0,0,0,0,0,0,0,0],"sum_hessian":[1.244E3,4.69E2,7.75E2,2.65E2,2.04E2,4.49E2,3.26E2,2.3E1,2.42E2,1.94E2,1E1,1.16E2,3.33E2,2.91E2,3.5E1,2.2E1,1E0,1.82E2,6E1,1.91E2,3E0,8E0,2E0,9.8E1,1.8E1,3.2E1,3.01E2,2.45E2,4.6E1,3.2E1,3E0,2.1E1,1E0,9.3E1,8.9E1,5.4E1,6E0,1.89E2,2E0,1E0,2E0,6E0,2E0,3.6E1,6.2E1,9E0,9E0,2.1E1,1.1E1,2.81E2,2E1,2.32E2,1.3E1,3.6E1,1E1,8E0,2.4E1],"tree_param":{"num_deleted":"0","num_feature":"2057","num_nodes":"57","size_leaf_vector":"1"}},{"base_weights":[-3.8333933E-3,1.5618941E-1,-1.7747444E-1,3.529782E-1,8.851286E-2,-1.3310462E-1,-4.2054397E-1,3.7203017E-1,-3.349017E-1,3.3909623E-2,2.8580165E-1,-1.1938069E-1,-8.046184E-1,-4.8499063E-1,4.951625E-2,3.8410482E-1,-3.167687E-2,-8.022157E-2,-3.8235832E-2,1.7633585E-2,5.6375455E-2,3.0883726E-1,-4.802839E-2,-1.011208E-1,-5.51649E-1,-7.819591E-2,-2.408084E-2,-5.235757E-1,2.0621857E-1,2.6426685E-1,-3.0398792E-1,3.1427868E-2,-4.0244907E-2,-1.0495614E-3,-8.577027E-3,5.27075E-3,-1.2792679E-2,2.7115844E-2,-2.7929964E-2,-7.1843797E-3,-6.06034E-2,-5.1198434E-2,1.2977806E-2,-3.7489653E-2,-8.766193E-2,4.2266487E-3,3.2790415E-2,6.851261E-3,3.3718616E-2,-3.8756378E-2,-1.7753441E-3],"categories":[],"categories_nodes":[],"categories_segments":[],"categories_sizes":[],"default_left":[0,0,0,0,0,0,0,0,0,0,0,0,0,0,0,0,0,0,0,0,0,0,0,0,0,0,0,0,0,0,0,0,0,0,0,0,0,0,0,0,0,0,0,0,0,0,0,0,0,0,0],"id":10,"left_children":[1,3,5,7,9,11,13,15,17,19,21,23,25,27,29,31,-1,33,-1,35,-1,37,-1,39,41,-1,-1,43,45,47,49,-1,-1,-1,-1,-1,-1,-1,-1,-1,-1,-1,-1,-1,-1,-1,-1,-1,-1,-1,-1],"loss_changes":[3.4705307E1,8.625446E0,6.404209E0,2.3001022E0,5.215024E0,4.585577E0,2.8110447E0,1.6543522E0,1.4381349E-1,4.147217E0,2.3287926E0,3.8829088E0,5.761652E-1,2.2682762E0,9.913168E-1,1.4387474E0,0E0,4.026929E-3,0E0,3.205857E0,0E0,2.158948E0,0E0,3.497459E0,1.3649654E0,0E0,0E0,1.9077778E0,1.3453841E-1,1.8856674E-1,2.435233E-1,0E0,0E0,0E0,0E0,0E0,0E0,0E0,0E0,0E0,0E0,0E0,0E0,0E0,0E0,0E0,0E0,0E0,0E0,0E0,0E0],"parents":[2147483647,0,0,1,1,2,2,3,3,4,4,5,5,6,6,7,7,8,8,9,9,10,10,11,11,12,12,13,13,14,14,15,15,17,17,19,19,21,21,23,23,24,24,27,27,28,28,29,29,30,30],"right_children":[2,4,6,8,10,12,14,16,18,20,22,24,26,28,30,32,-1,34,-1,36,-1,38,-1,40,42,-1,-1,44,46,48,50,-1,-1,-1,-1,-1,-1,-1,-1,-1,-1,-1,-1,-1,-1,-1,-1,-1,-1,-1,-1],"split_conditions":[3.4737E0,2.0501E0,1E0,1E0,4.1379312E-1,1E0,4.3333334E-1,1E0,1E0,1E0,1E0,6.1211E0,1E0,1E0,1E0,1E0,-3.167687E-2,1E0,-3.8235832E-2,1E0,5.6375455E-2,1E0,-4.802839E-2,1E0,1E0,-7.819591E-2,-2.408084E-2,1E0,1E0,1E0,1E0,3.1427868E-2,-4.0244907E-2,-1.0495614E-3,-8.577027E-3,5.27075E-3,-1.2792679E-2,2.7115844E-2,-2.7929964E-2,-7.1843797E-3,-6.06034E-2,-5.1198434E-2,1.2977806E-2,-3.7489653E-2,-8.766193E-2,4.2266487E-3,3.2790415E-2,6.851261E-3,3.3718616E-2,-3.8756378E-2,-1.7753441E-3],"split_indices":[2048,2048,675,98,2055,1934,2055,1381,389,652,110,2048,935,1487,875,107,0,80,0,1476,0,1065,0,46,291,0,0,1060,297,1855,378,0,0,0,0,0,0,0,0,0,0,0,0,0,0,0,0,0,0,0,0],"split_type":[0,0,0,0,0,0,0,0,0,0,0,0,0,0,0,0,0,0,0,0,0,0,0,0,0,0,0,0,0,0,0,0,0,0,0,0,0,0,0,0,0,0,0,0,0,0,0,0,0,0,0],"sum_hessian":[1.247E3,6.49E2,5.98E2,1.65E2,4.84E2,5.07E2,9.1E1,1.61E2,4E0,3.8E2,1.04E2,4.98E2,9E0,8E1,1.1E1,1.59E2,2E0,2E0,2E0,3.72E2,8E0,1.02E2,2E0,4.79E2,1.9E1,6E0,3E0,7.6E1,4E0,7E0,4E0,1.58E2,1E0,1E0,1E0,2.93E2,7.9E1,9.8E1,4E0,4.72E2,7E0,1.7E1,2E0,7.1E1,5E0,3E0,1E0,4E0,3E0,2E0,2E0],"tree_param":{"num_deleted":"0","num_feature":"2057","num_nodes":"51","size_leaf_vector":"1"}},{"base_weights":[-2.802196E-3,2.1050674E-1,-1.3116634E-1,2.8046378E-1,1.0024487E-1,-8.957137E-2,-3.9519495E-1,2.8840315E-1,-4.5381054E-2,1.142545E-1,-6.2646985E-2,-5.2913245E-2,-2.9774472E-1,-4.863742E-1,1.9038408E-1,3.0078754E-1,-2.4640341E-1,4.0186327E-2,2.801903E-1,-3.2292973E-2,-4.7099608E-1,-3.4211263E-1,3.4692618E-1,-5.499239E-1,-1.2349077E-1,3.5260004E-1,-3.4385976E-1,2.480555E-2,-2.1589808E-2,-6.734216E-4,-3.3823054E-2,-6.437255E-4,2.6616829E-2,2.680343E-2,-4.133235E-2,-1.8149286E-3,-4.8577722E-2,-1.8605726E-2,-7.37603E-2,-7.0829745E-3,-4.0187977E-2,4.1817045E-3,4.438796E-2,-4.6297133E-2,2.9019058E-2,-2.0224378E-2,1.4855843E-2,3.5921194E-2,-6.9053075E-3,-3.2919504E-2,-5.6383037E-3],"categories":[],"categories_nodes":[],"categories_segments":[],"categories_sizes":[],"default_left":[0,0,0,0,0,0,0,0,0,0,0,0,0,0,0,0,0,0,0,0,0,0,0,0,0,0,0,0,0,0,0,0,0,0,0,0,0,0,0,0,0,0,0,0,0,0,0,0,0,0,0],"id":11,"left_children":[1,3,5,7,9,11,13,15,-1,17,-1,19,21,23,25,27,29,31,33,35,37,39,41,43,45,47,49,-1,-1,-1,-1,-1,-1,-1,-1,-1,-1,-1,-1,-1,-1,-1,-1,-1,-1,-1,-1,-1,-1,-1,-1],"loss_changes":[3.425413E1,3.5972748E0,8.54175E0,2.0952263E0,2.3664994E0,5.142966E0,5.7522182E0,1.9617424E0,0E0,2.2256222E0,0E0,4.950476E0,3.0075607E0,2.0537148E0,1.421188E0,1.5614853E0,2.9028034E-1,1.7945557E0,2.6208062E0,3.02386E0,2.6889133E0,3.8155823E0,3.998565E-1,2.2594357E0,6.466817E-1,5.465745E-1,4.4957876E-2,0E0,0E0,0E0,0E0,0E0,0E0,0E0,0E0,0E0,0E0,0E0,0E0,0E0,0E0,0E0,0E0,0E0,0E0,0E0,0E0,0E0,0E0,0E0,0E0],"parents":[2147483647,0,0,1,1,2,2,3,3,4,4,5,5,6,6,7,7,9,9,11,11,12,12,13,13,14,14,15,15,16,16,17,17,18,18,19,19,20,20,21,21,22,22,23,23,24,24,25,25,26,26],"right_children":[2,4,6,8,10,12,14,16,-1,18,-1,20,22,24,26,28,30,32,34,36,38,40,42,44,46,48,50,-1,-1,-1,-1,-1,-1,-1,-1,-1,-1,-1,-1,-1,-1,-1,-1,-1,-1,-1,-1,-1,-1,-1,-1],"split_conditions":[3.01308E0,2.5051E0,5.1551E0,1E0,1E0,1E0,1E0,1E0,-4.5381054E-2,7.3774666E-1,-6.2646985E-2,1E0,1E0,1E0,1E0,1E0,2.3135E0,1E0,1E0,1E0,1E0,1E0,1E0,1E0,1E0,1E0,1E0,2.480555E-2,-2.1589808E-2,-6.734216E-4,-3.3823054E-2,-6.437255E-4,2.6616829E-2,2.680343E-2,-4.133235E-2,-1.8149286E-3,-4.8577722E-2,-1.8605726E-2,-7.37603E-2,-7.0829745E-3,-4.0187977E-2,4.1817045E-3,4.438796E-2,-4.6297133E-2,2.9019058E-2,-2.0224378E-2,1.4855843E-2,3.5921194E-2,-6.9053075E-3,-3.2919504E-2,-5.6383037E-3],"split_indices":[2048,2048,2048,1622,250,675,1809,1792,0,2050,0,1602,1045,283,325,755,2048,1670,341,535,352,650,1163,193,216,1452,238,0,0,0,0,0,0,0,0,0,0,0,0,0,0,0,0,0,0,0,0,0,0,0,0],"split_type":[0,0,0,0,0,0,0,0,0,0,0,0,0,0,0,0,0,0,0,0,0,0,0,0,0,0,0,0,0,0,0,0,0,0,0,0,0,0,0,0,0,0,0,0,0,0,0,0,0,0,0],"sum_hessian":[1.249E3,4.69E2,7.8E2,2.86E2,1.83E2,6.75E2,1.05E2,2.84E2,2E0,1.81E2,2E0,5.75E2,1E2,9.1E1,1.4E1,2.78E2,6E0,1.26E2,5.5E1,5.49E2,2.6E1,9.4E1,6E0,7.7E1,1.4E1,1.1E1,3E0,2.74E2,4E0,3E0,3E0,1.09E2,1.7E1,5.2E1,3E0,5.41E2,8E0,1.8E1,8E0,3.7E1,5.7E1,3E0,3E0,7.5E1,2E0,1E1,4E0,9E0,2E0,2E0,1E0],"tree_param":{"num_deleted":"0","num_feature":"2057","num_nodes":"51","size_leaf_vector":"1"}},{"base_weights":[8.2826946E-4,1.23296715E-1,-1.9169585E-1,2.4900632E-1,5.0876394E-2,-2.1710244E-1,1.5244763E-1,1.485166E-1,3.4915054E-1,-1.7931369E-1,9.06904E-2,-1.5526395E-1,-3.746149E-1,4.1651183E-1,-3.0854588E-2,1.8274894E-1,-2.3471016E-1,3.9554682E-1,5.3315226E-2,-2.2409824E-1,3.5066596E-1,1.0798923E-1,-3.2065812E-1,-1.3614555E-1,-6.921065E-1,-4.0292642E-1,2.6348814E-1,4.4438964E-1,2.164011E-3,1.7964756E-1,-2.0370184E-1,2.0174738E-2,1.1252893E-4,-2.3237614E-2,1.514601E-2,3.4647975E-2,-1.2752841E-3,1.2577391E-2,-2.3186782E-2,-1.4771964E-2,-6.39402E-2,4.053103E-2,2.0651785E-3,6.947862E-3,3.1683836E-2,-3.3181865E-2,2.0544315E-2,1.5137848E-2,-1.366524E-2,-6.573331E-2,2.4139727E-2,-3.6472086E-2,4.282468E-4,-1.4780933E-3,3.2727145E-2,3.805196E-2,2.770848E-3,2.1390824E-3,4.2201795E-2,2.942882E-3,-3.6025655E-2],"categories":[],"categories_nodes":[],"categories_segments":[],"categories_sizes":[],"default_left":[0,0,0,0,0,0,0,0,0,0,0,0,0,0,0,0,0,0,0,0,0,0,0,0,0,0,0,0,0,0,0,0,0,0,0,0,0,0,0,0,0,0,0,0,0,0,0,0,0,0,0,0,0,0,0,0,0,0,0,0,0],"id":12,"left_children":[1,3,5,7,9,11,13,15,17,19,21,23,25,27,29,31,33,35,37,39,41,43,45,47,49,51,53,55,-1,57,59,-1,-1,-1,-1,-1,-1,-1,-1,-1,-1,-1,-1,-1,-1,-1,-1,-1,-1,-1,-1,-1,-1,-1,-1,-1,-1,-1,-1,-1,-1],"loss_changes":[2.9472721E1,6.9427357E0,4.282442E0,2.7558498E0,4.4703493E0,4.354206E0,1.658572E0,1.8926363E0,1.8867779E0,1.7874961E0,2.9877048E0,3.261959E0,2.400505E0,1.3998199E-1,8.006736E-1,1.6365476E0,3.3872402E-1,1.8612137E0,7.5864774E-1,1.3725865E0,2.9092735E-1,2.3954492E0,1.0304308E0,3.6082482E0,1.6643343E0,2.6411133E0,2.538845E-1,1.5004063E-1,0E0,5.178269E-1,7.282716E-1,0E0,0E0,0E0,0E0,0E0,0E0,0E0,0E0,0E0,0E0,0E0,0E0,0E0,0E0,0E0,0E0,0E0,0E0,0E0,0E0,0E0,0E0,0E0,0E0,0E0,0E0,0E0,0E0,0E0,0E0],"parents":[2147483647,0,0,1,1,2,2,3,3,4,4,5,5,6,6,7,7,8,8,9,9,10,10,11,11,12,12,13,13,14,14,15,15,16,16,17,17,18,18,19,19,20,20,21,21,22,22,23,23,24,24,25,25,26,26,27,27,29,29,30,30],"right_children":[2,4,6,8,10,12,14,16,18,20,22,24,26,28,30,32,34,36,38,40,42,44,46,48,50,52,54,56,-1,58,60,-1,-1,-1,-1,-1,-1,-1,-1,-1,-1,-1,-1,-1,-1,-1,-1,-1,-1,-1,-1,-1,-1,-1,-1,-1,-1,-1,-1,-1,-1],"split_conditions":[3.7744E0,2.4662E0,1E0,3.7931034E-1,1.4814815E-1,1E0,4.4079E0,1E0,1E0,1E0,1E0,1E0,1E0,1E0,1E0,1E0,1E0,1E0,1.884E0,1E0,3.3032E0,1E0,1E0,5.7237166E-1,1E0,1E0,1E0,1E0,2.164011E-3,1E0,1E0,2.0174738E-2,1.1252893E-4,-2.3237614E-2,1.514601E-2,3.4647975E-2,-1.2752841E-3,1.2577391E-2,-2.3186782E-2,-1.4771964E-2,-6.39402E-2,4.053103E-2,2.0651785E-3,6.947862E-3,3.1683836E-2,-3.3181865E-2,2.0544315E-2,1.5137848E-2,-1.366524E-2,-6.573331E-2,2.4139727E-2,-3.6472086E-2,4.282468E-4,-1.4780933E-3,3.2727145E-2,3.805196E-2,2.770848E-3,2.1390824E-3,4.2201795E-2,2.942882E-3,-3.6025655E-2],"split_indices":[2048,2048,652,2055,2055,1855,2048,667,1893,1958,341,1803,1181,110,881,314,102,116,2048,1521,2048,1951,1953,2050,21,1627,162,149,0,331,666,0,0,0,0,0,0,0,0,0,0,0,0,0,0,0,0,0,0,0,0,0,0,0,0,0,0,0,0,0,0],"split_type":[0,0,0,0,0,0,0,0,0,0,0,0,0,0,0,0,0,0,0,0,0,0,0,0,0,0,0,0,0,0,0,0,0,0,0,0,0,0,0,0,0,0,0,0,0,0,0,0,0,0,0,0,0,0,0,0,0,0,0,0,0],"sum_hessian":[1.248E3,7.63E2,4.85E2,2.78E2,4.85E2,4.52E2,3.3E1,1.4E2,1.38E2,7.1E1,4.14E2,3.26E2,1.26E2,1.3E1,2E1,1.29E2,1.1E1,1.19E2,1.9E1,6.6E1,5E0,3.98E2,1.6E1,3.16E2,1E1,1.21E2,5E0,1.2E1,1E0,9E0,1.1E1,9.3E1,3.6E1,1E1,1E0,1.09E2,1E1,1.5E1,4E0,6.3E1,3E0,3E0,2E0,3.72E2,2.6E1,1.4E1,2E0,3E1,2.86E2,9E0,1E0,1.07E2,1.4E1,2E0,3E0,1.1E1,1E0,7E0,2E0,6E0,5E0],"tree_param":{"num_deleted":"0","num_feature":"2057","num_nodes":"61","size_leaf_vector":"1"}},{"base_weights":[-8.317447E-3,1.9870844E-1,-8.4817976E-2,3.094053E-1,1.2247754E-1,5.8091636E-4,-1.7171636E-1,3.3478573E-1,-4.326715E-1,1.631915E-1,-2.582148E-1,-3.6315016E-2,2.281915E-1,-1.8121344E-1,5.707664E-1,3.6075893E-1,-2.235486E-2,-1.2227384E-1,-4.7907624E-2,8.198396E-2,2.9427257E-1,-3.7497845E-2,-7.88157E-2,-7.5058945E-2,2.1404056E-1,2.6571098E-1,-2.7518454E-1,-1.5541555E-1,-5.032772E-1,5.6358665E-2,1.6177734E-2,3.2235652E-2,7.6249787E-3,-1.18660685E-2,-2.8067923E-3,1.0976736E-2,-1.373988E-2,2.687095E-2,-1.6447544E-2,-2.1074157E-2,3.7134646E-3,2.221408E-2,-7.6112375E-3,2.2100708E-2,-5.062023E-2,2.3094723E-2,-2.197303E-2,-3.086837E-2,6.6998336E-3,-1.3430755E-2,2.5786335E-2,-4.646833E-2,-1.0572414E-2],"categories":[],"categories_nodes":[],"categories_segments":[],"categories_sizes":[],"default_left":[0,0,0,0,0,0,0,0,0,0,0,0,0,0,0,0,0,0,0,0,0,0,0,0,0,0,0,0,0,0,0,0,0,0,0,0,0,0,0,0,0,0,0,0,0,0,0,0,0,0,0,0,0],"id":13,"left_children":[1,3,5,7,9,11,13,15,17,19,21,23,25,27,29,31,-1,33,-1,35,37,-1,39,41,43,45,47,49,51,-1,-1,-1,-1,-1,-1,-1,-1,-1,-1,-1,-1,-1,-1,-1,-1,-1,-1,-1,-1,-1,-1,-1,-1],"loss_changes":[1.9956379E1,2.8312016E0,6.827445E0,2.7439756E0,3.188536E0,3.9133127E0,3.3188734E0,2.2385502E0,1.846767E-1,1.9345126E0,7.183573E-1,3.9056687E0,1.3007362E0,3.6689453E0,1.5322208E-1,1.4061794E0,0E0,1.6103424E-3,0E0,1.6349957E0,1.5251684E0,0E0,2.8966314E-1,2.4914613E0,3.01985E0,8.365474E-1,2.3092994E-1,2.5500755E0,8.7332344E-1,0E0,0E0,0E0,0E0,0E0,0E0,0E0,0E0,0E0,0E0,0E0,0E0,0E0,0E0,0E0,0E0,0E0,0E0,0E0,0E0,0E0,0E0,0E0,0E0],"parents":[2147483647,0,0,1,1,2,2,3,3,4,4,5,5,6,6,7,7,8,8,9,9,10,10,11,11,12,12,13,13,14,14,15,15,17,17,19,19,20,20,22,22,23,23,24,24,25,25,26,26,27,27,28,28],"right_children":[2,4,6,8,10,12,14,16,18,20,22,24,26,28,30,32,-1,34,-1,36,38,-1,40,42,44,46,48,50,52,-1,-1,-1,-1,-1,-1,-1,-1,-1,-1,-1,-1,-1,-1,-1,-1,-1,-1,-1,-1,-1,-1,-1,-1],"split_conditions":[2.6984E0,4.1975E-1,3.8652E0,1E0,1E0,1E0,1E0,1E0,1E0,1E0,1E0,8.5680133E-1,1E0,1E0,1E0,1E0,-2.235486E-2,1E0,-4.7907624E-2,1E0,1E0,-3.7497845E-2,5.075E-1,1.813E-1,1E0,1E0,1E0,1E0,4.861E-1,5.6358665E-2,1.6177734E-2,3.2235652E-2,7.6249787E-3,-1.18660685E-2,-2.8067923E-3,1.0976736E-2,-1.373988E-2,2.687095E-2,-1.6447544E-2,-2.1074157E-2,3.7134646E-3,2.221408E-2,-7.6112375E-3,2.2100708E-2,-5.062023E-2,2.3094723E-2,-2.197303E-2,-3.086837E-2,6.6998336E-3,-1.3430755E-2,2.5786335E-2,-4.646833E-2,-1.0572414E-2],"split_indices":[2048,2049,2048,235,1745,1670,1025,1862,80,1,935,2056,41,162,102,561,0,98,0,715,41,0,2049,2049,855,666,245,1375,2049,0,0,0,0,0,0,0,0,0,0,0,0,0,0,0,0,0,0,0,0,0,0,0,0],"split_type":[0,0,0,0,0,0,0,0,0,0,0,0,0,0,0,0,0,0,0,0,0,0,0,0,0,0,0,0,0,0,0,0,0,0,0,0,0,0,0,0,0,0,0,0,0,0,0,0,0,0,0,0,0],"sum_hessian":[1.258E3,3.39E2,9.19E2,1.37E2,2.02E2,4.64E2,4.55E2,1.33E2,4E0,1.83E2,1.9E1,4E2,6.4E1,4.5E2,5E0,1.28E2,5E0,2E0,2E0,1.14E2,6.9E1,8E0,1.1E1,3.47E2,5.3E1,6E1,4E0,4.18E2,3.2E1,3E0,2E0,1.1E2,1.8E1,1E0,1E0,9.4E1,2E1,6.4E1,5E0,4E0,7E0,1.8E1,3.29E2,5E1,3E0,5.8E1,2E0,3E0,1E0,4.08E2,1E1,2.6E1,6E0],"tree_param":{"num_deleted":"0","num_feature":"2057","num_nodes":"53","size_leaf_vector":"1"}},{"base_weights":[2.1812065E-4,1.836423E-2,-2.6600415E-1,4.5697206E-1,7.4990494E-3,-3.036212E-1,2.4227364E-1,5.1331115E-1,-1.4689937E-2,-2.3077516E-2,1.2557377E-1,-3.355321E-1,3.3870256E-1,2.1204514E-2,5.1343916E-3,5.727376E-1,2.1976687E-1,-1.15642704E-1,3.4131642E-2,1.0712971E-1,4.2946324E-1,-4.0977722E-1,-5.4703426E-2,4.2303644E-2,-9.263053E-3,4.931033E-2,8.4342975E-3,2.12392E-3,2.4779085E-2,-7.362309E-3,-5.678465E-2,3.5396176E-3,-4.6927117E-2,1.1636666E-2,-8.63647E-3,4.1903976E-2,-2.8102994E-2,-3.904628E-2,-1.3057212E-2,5.9233997E-3,-3.6756147E-2],"categories":[],"categories_nodes":[],"categories_segments":[],"categories_sizes":[],"default_left":[0,0,0,0,0,0,0,0,0,0,0,0,0,0,0,0,0,0,0,0,0,0,0,0,0,0,0,0,0,0,0,0,0,0,0,0,0,0,0,0,0],"id":14,"left_children":[1,3,5,7,9,11,13,15,-1,17,19,21,23,-1,-1,25,27,29,31,33,35,37,39,-1,-1,-1,-1,-1,-1,-1,-1,-1,-1,-1,-1,-1,-1,-1,-1,-1,-1],"loss_changes":[5.9807057E0,5.5198493E0,1.584033E0,1.1047935E0,4.0897794E0,1.6304331E0,7.333517E-3,3.2768297E-1,0E0,4.7699656E0,1.2599459E0,1.4579453E0,4.0681022E-1,0E0,0E0,3.6329126E-1,9.6081555E-2,4.761178E0,3.5226364E0,1.8376124E0,1.1414969E0,1.001481E0,8.6777425E-1,0E0,0E0,0E0,0E0,0E0,0E0,0E0,0E0,0E0,0E0,0E0,0E0,0E0,0E0,0E0,0E0,0E0,0E0],"parents":[2147483647,0,0,1,1,2,2,3,3,4,4,5,5,6,6,7,7,9,9,10,10,11,11,12,12,15,15,16,16,17,17,18,18,19,19,20,20,21,21,22,22],"right_children":[2,4,6,8,10,12,14,16,-1,18,20,22,24,-1,-1,26,28,30,32,34,36,38,40,-1,-1,-1,-1,-1,-1,-1,-1,-1,-1,-1,-1,-1,-1,-1,-1,-1,-1],"split_conditions":[1E0,4E-1,1E0,1E0,1E0,1E0,1E0,1E0,-1.4689937E-2,1E0,1E0,1E0,1E0,2.1204514E-2,5.1343916E-3,1E0,1E0,1E0,1E0,1E0,1E0,1E0,1E0,4.2303644E-2,-9.263053E-3,4.931033E-2,8.4342975E-3,2.12392E-3,2.4779085E-2,-7.362309E-3,-5.678465E-2,3.5396176E-3,-4.6927117E-2,1.1636666E-2,-8.63647E-3,4.1903976E-2,-2.8102994E-2,-3.904628E-2,-1.3057212E-2,5.9233997E-3,-3.6756147E-2],"split_indices":[235,2054,1005,1034,1171,855,366,389,0,935,1951,1019,90,0,0,35,1088,1934,8,283,79,699,930,0,0,0,0,0,0,0,0,0,0,0,0,0,0,0,0,0,0],"split_type":[0,0,0,0,0,0,0,0,0,0,0,0,0,0,0,0,0,0,0,0,0,0,0,0,0,0,0,0,0,0,0,0,0,0,0,0,0,0,0,0,0],"sum_hessian":[1.236E3,1.158E3,7.8E1,2.7E1,1.131E3,7.3E1,5E0,2.5E1,2E0,8.99E2,2.32E2,7E1,3E0,4E0,1E0,2E1,5E0,3.43E2,5.56E2,2.2E2,1.2E1,5.5E1,1.5E1,2E0,1E0,1.8E1,2E0,2E0,3E0,3.31E2,1.2E1,5.48E2,8E0,1.87E2,3.3E1,1.1E1,1E0,4.1E1,1.4E1,1.2E1,3E0],"tree_param":{"num_deleted":"0","num_feature":"2057","num_nodes":"41","size_leaf_vector":"1"}},{"base_weights":[-4.0133176E-3,-6.539819E-2,1.2219299E-1,-9.291407E-2,1.0707626E-1,6.9285795E-2,2.844192E-1,-8.5684285E-2,-6.633829E-1,1.673921E-1,-2.8412956E-1,8.995093E-2,-5.0436455E-1,3.0776072E-1,-4.6452556E-2,-7.025559E-2,-3.619579E-1,-6.0593672E-2,-1.7826667E-2,2.5167754E-1,-1.02274165E-1,-4.380455E-1,4.2308383E-2,1.5109177E-1,-7.052284E-2,-4.9837675E-2,1.9575993E-2,3.2505274E-1,-2.831474E-2,-4.407337E-3,-2.3658184E-2,-3.1623494E-2,3.4858625E-2,2.2264866E-2,-4.055402E-2,-1.7550357E-2,1.0423082E-2,-4.3147925E-2,3.515602E-2,1.34224165E-2,-3.0263847E-2,-8.7192294E-4,-6.7505255E-2,8.738046E-3,-6.3889264E-3,2.8054817E-2,-4.3684402E-3],"categories":[],"categories_nodes":[],"categories_segments":[],"categories_sizes":[],"default_left":[0,0,0,0,0,0,0,0,0,0,0,0,0,0,0,0,0,0,0,0,0,0,0,0,0,0,0,0,0,0,0,0,0,0,0,0,0,0,0,0,0,0,0,0,0,0,0],"id":15,"left_children":[1,3,5,7,9,11,13,15,17,19,21,23,25,27,-1,29,31,-1,-1,33,35,37,-1,39,41,-1,43,45,-1,-1,-1,-1,-1,-1,-1,-1,-1,-1,-1,-1,-1,-1,-1,-1,-1,-1,-1],"loss_changes":[9.753915E0,4.02963E0,3.5164623E0,2.9580708E0,2.8082829E0,3.74399E0,2.218113E0,3.056387E0,2.0407653E-1,2.3440917E0,2.2337627E0,2.9737282E0,6.957648E-1,1.2478094E0,0E0,2.3291602E0,1.1827245E0,0E0,0E0,1.7170029E0,7.094407E-1,1.481525E0,0E0,1.9982686E0,3.8637626E0,0E0,3.5466537E-2,9.631119E-1,0E0,0E0,0E0,0E0,0E0,0E0,0E0,0E0,0E0,0E0,0E0,0E0,0E0,0E0,0E0,0E0,0E0,0E0,0E0],"parents":[2147483647,0,0,1,1,2,2,3,3,4,4,5,5,6,6,7,7,8,8,9,9,10,10,11,11,12,12,13,13,15,15,16,16,19,19,20,20,21,21,23,23,24,24,26,26,27,27],"right_children":[2,4,6,8,10,12,14,16,18,20,22,24,26,28,-1,30,32,-1,-1,34,36,38,-1,40,42,-1,44,46,-1,-1,-1,-1,-1,-1,-1,-1,-1,-1,-1,-1,-1,-1,-1,-1,-1,-1,-1],"split_conditions":[3.846154E-1,1E0,5.8064514E-1,1E0,1E0,1E0,1E0,1E0,1E0,1E0,1E0,1E0,1E0,1E0,-4.6452556E-2,1E0,1E0,-6.0593672E-2,-1.7826667E-2,1E0,1E0,1E0,4.2308383E-2,1E0,1E0,-4.9837675E-2,1E0,1E0,-2.831474E-2,-4.407337E-3,-2.3658184E-2,-3.1623494E-2,3.4858625E-2,2.2264866E-2,-4.055402E-2,-1.7550357E-2,1.0423082E-2,-4.3147925E-2,3.515602E-2,1.34224165E-2,-3.0263847E-2,-8.7192294E-4,-6.7505255E-2,8.738046E-3,-6.3889264E-3,2.8054817E-2,-4.3684402E-3],"split_indices":[2055,1670,2055,1387,896,1086,1624,1972,314,561,314,114,9,39,0,94,106,0,0,1736,1993,3,0,242,1691,0,101,591,0,0,0,0,0,0,0,0,0,0,0,0,0,0,0,0,0,0,0],"split_type":[0,0,0,0,0,0,0,0,0,0,0,0,0,0,0,0,0,0,0,0,0,0,0,0,0,0,0,0,0,0,0,0,0,0,0,0,0,0,0,0,0,0,0,0,0,0,0],"sum_hessian":[1.257E3,8.46E2,4.11E2,7.3E2,1.16E2,3.11E2,1E2,7.22E2,8E0,1.01E2,1.5E1,3.01E2,1E1,9.8E1,2E0,6.85E2,3.7E1,6E0,2E0,7.7E1,2.4E1,1.3E1,2E0,2.18E2,8.3E1,8E0,2E0,9.6E1,2E0,6.43E2,4.2E1,3.6E1,1E0,7.5E1,2E0,1.6E1,8E0,1.2E1,1E0,2.12E2,6E0,7.8E1,5E0,1E0,1E0,9E1,6E0],"tree_param":{"num_deleted":"0","num_feature":"2057","num_nodes":"47","size_leaf_vector":"1"}},{"base_weights":[-6.259569E-3,8.1816554E-2,-1.5720606E-1,1.972093E-1,2.1957336E-2,-2.6040173E-1,-6.877264E-2,2.0633134E-1,-4.5642784E-1,-5.6180675E-3,2.745717E-1,-3.026651E-1,3.8825247E-2,-8.435119E-2,5.7362074E-1,2.1669391E-1,-3.7586084E-1,-4.2298254E-2,-9.581074E-3,-2.5424745E-2,3.4637326E-1,3.687765E-1,-1.4854574E-1,-3.246108E-1,2.234597E-1,1.2431182E-1,-5.4920368E-2,-5.706566E-2,-5.2658844E-1,6.523328E-1,7.20242E-3,1.8266408E-2,-2.527192E-2,-3.5240777E-2,-4.690609E-3,-1.048757E-3,-4.0720582E-2,8.570194E-3,3.467694E-2,3.2935087E-2,-1.1344847E-2,-2.295358E-2,1.0459614E-2,-2.7212195E-2,3.4919098E-2,2.2764133E-2,-8.167362E-3,-2.8691262E-2,1.4552061E-2,-6.346769E-3,3.14801E-2,-2.0644736E-2,-5.5658236E-2,5.7441406E-2,1.5583751E-2],"categories":[],"categories_nodes":[],"categories_segments":[],"categories_sizes":[],"default_left":[0,0,0,0,0,0,0,0,0,0,0,0,0,0,0,0,0,0,0,0,0,0,0,0,0,0,0,0,0,0,0,0,0,0,0,0,0,0,0,0,0,0,0,0,0,0,0,0,0,0,0,0,0,0,0],"id":16,"left_children":[1,3,5,7,9,11,13,15,17,19,21,23,25,27,29,31,33,-1,-1,35,37,39,41,43,45,47,-1,49,51,53,-1,-1,-1,-1,-1,-1,-1,-1,-1,-1,-1,-1,-1,-1,-1,-1,-1,-1,-1,-1,-1,-1,-1,-1,-1],"loss_changes":[1.652498E1,5.4179153E0,4.1617746E0,1.6921263E0,3.6099005E0,2.680128E0,2.5302598E0,1.680193E0,3.4041524E-2,3.2715988E0,2.0876248E0,2.20858E0,1.7595016E0,2.902153E0,1.6965652E-1,1.6896372E0,7.671404E-2,0E0,0E0,2.637549E0,4.7445345E-1,9.786172E-1,4.2397934E-1,2.2539864E0,1.8815926E-1,7.605554E-1,0E0,2.3389592E0,4.5632577E-1,1.03981495E-2,0E0,0E0,0E0,0E0,0E0,0E0,0E0,0E0,0E0,0E0,0E0,0E0,0E0,0E0,0E0,0E0,0E0,0E0,0E0,0E0,0E0,0E0,0E0,0E0,0E0],"parents":[2147483647,0,0,1,1,2,2,3,3,4,4,5,5,6,6,7,7,8,8,9,9,10,10,11,11,12,12,13,13,14,14,15,15,16,16,19,19,20,20,21,21,22,22,23,23,24,24,25,25,27,27,28,28,29,29],"right_children":[2,4,6,8,10,12,14,16,18,20,22,24,26,28,30,32,34,-1,-1,36,38,40,42,44,46,48,-1,50,52,54,-1,-1,-1,-1,-1,-1,-1,-1,-1,-1,-1,-1,-1,-1,-1,-1,-1,-1,-1,-1,-1,-1,-1,-1,-1],"split_conditions":[3.8652E0,2.4662E0,1E0,1E0,1E0,1E0,1E0,1E0,1E0,1E0,1E0,1E0,1E0,1E0,1E0,1E0,1E0,-4.2298254E-2,-9.581074E-3,1E0,4E-1,1E0,1E0,1E0,1E0,2E-1,-5.4920368E-2,1E0,2E-1,1E0,7.20242E-3,1.8266408E-2,-2.527192E-2,-3.5240777E-2,-4.690609E-3,-1.048757E-3,-4.0720582E-2,8.570194E-3,3.467694E-2,3.2935087E-2,-1.1344847E-2,-2.295358E-2,1.0459614E-2,-2.7212195E-2,3.4919098E-2,2.2764133E-2,-8.167362E-3,-2.8691262E-2,1.4552061E-2,-6.346769E-3,3.14801E-2,-2.0644736E-2,-5.5658236E-2,5.7441406E-2,1.5583751E-2],"split_indices":[2048,2048,926,891,1236,448,1730,908,591,237,294,652,160,1387,50,307,62,0,0,576,2053,527,615,890,4,2052,0,448,2052,689,0,0,0,0,0,0,0,0,0,0,0,0,0,0,0,0,0,0,0,0,0,0,0,0,0],"split_type":[0,0,0,0,0,0,0,0,0,0,0,0,0,0,0,0,0,0,0,0,0,0,0,0,0,0,0,0,0,0,0,0,0,0,0,0,0,0,0,0,0,0,0,0,0,0,0,0,0,0,0,0,0,0,0],"sum_hessian":[1.241E3,7.84E2,4.57E2,2.67E2,5.17E2,2.1E2,2.47E2,2.64E2,3E0,4.67E2,5E1,1.84E2,2.6E1,2.42E2,5E0,2.6E2,4E0,2E0,1E0,4.43E2,2.4E1,4.1E1,9E0,1.77E2,7E0,2.4E1,2E0,2.29E2,1.3E1,4E0,1E0,2.55E2,5E0,3E0,1E0,4.33E2,1E1,7E0,1.7E1,3.8E1,3E0,6E0,3E0,1.74E2,3E0,6E0,1E0,2E0,2.2E1,2.19E2,1E1,6E0,7E0,3E0,1E0],"tree_param":{"num_deleted":"0","num_feature":"2057","num_nodes":"55","size_leaf_vector":"1"}},{"base_weights":[6.1418803E-4,1.3780838E-1,-8.0583155E-2,1.5386835E-1,-2.2641642E-1,-4.9240116E-2,-2.588444E-1,4.460441E-1,1.3615276E-1,-3.9433002E-1,2.3110364E-1,1.8486622E-1,-7.7831596E-2,-3.2643652E-1,1.8823302E-1,5.1341707E-1,-3.6018386E-2,8.160338E-2,2.6038218E-1,-4.8309538E-1,9.741061E-3,3.334529E-1,-1.122571E-2,2.4104759E-1,-2.4142879E-1,-1.2621512E-1,1.00056715E-1,-3.5400513E-1,3.4999665E-2,3.203967E-1,-2.8835717E-1,4.382478E-2,9.039467E-3,8.136656E-3,-9.266398E-3,1.4512212E-2,1.5353377E-3,3.6116436E-2,1.6189367E-2,-1.0381848E-2,-4.608918E-2,3.0118883E-2,6.452818E-3,2.1253187E-2,-2.8501129E-2,6.6706655E-4,-5.9499394E-2,-1.10806525E-2,3.185711E-2,3.4348115E-2,4.203636E-3,-3.1172073E-2,2.1075701E-2,3.1495746E-2,-4.4135507E-3,-8.64397E-3,-3.317119E-2],"categories":[],"categories_nodes":[],"categories_segments":[],"categories_sizes":[],"default_left":[0,0,0,0,0,0,0,0,0,0,0,0,0,0,0,0,0,0,0,0,0,0,0,0,0,0,0,0,0,0,0,0,0,0,0,0,0,0,0,0,0,0,0,0,0,0,0,0,0,0,0,0,0,0,0,0,0],"id":17,"left_children":[1,3,5,7,9,11,13,15,17,19,21,23,25,27,29,31,33,35,37,39,-1,41,-1,43,45,47,49,51,-1,53,55,-1,-1,-1,-1,-1,-1,-1,-1,-1,-1,-1,-1,-1,-1,-1,-1,-1,-1,-1,-1,-1,-1,-1,-1,-1,-1],"loss_changes":[1.390244E1,2.7489786E0,4.3676577E0,2.2426186E0,1.6276081E0,4.485611E0,3.5970583E0,8.304429E-1,2.831717E0,7.4599123E-1,2.7488106E-1,1.8065338E0,5.142319E0,2.303052E0,1.1001952E0,2.4107742E-1,5.5749577E-2,1.8277382E0,1.3275366E0,3.5249162E-1,0E0,2.4024904E-2,0E0,1.0504181E0,1.1353546E0,3.0787168E0,1.9800261E0,2.2815962E0,0E0,3.7959754E-1,4.6277225E-2,0E0,0E0,0E0,0E0,0E0,0E0,0E0,0E0,0E0,0E0,0E0,0E0,0E0,0E0,0E0,0E0,0E0,0E0,0E0,0E0,0E0,0E0,0E0,0E0,0E0,0E0],"parents":[2147483647,0,0,1,1,2,2,3,3,4,4,5,5,6,6,7,7,8,8,9,9,10,10,11,11,12,12,13,13,14,14,15,15,16,16,17,17,18,18,19,19,21,21,23,23,24,24,25,25,26,26,27,27,29,29,30,30],"right_children":[2,4,6,8,10,12,14,16,18,20,22,24,26,28,30,32,34,36,38,40,-1,42,-1,44,46,48,50,52,-1,54,56,-1,-1,-1,-1,-1,-1,-1,-1,-1,-1,-1,-1,-1,-1,-1,-1,-1,-1,-1,-1,-1,-1,-1,-1,-1,-1],"split_conditions":[3.01308E0,1E0,5.11618E0,3E-1,1E0,2.2445E-1,1E0,1E0,1E0,1E0,1E0,1E0,1E0,1E0,1E0,1E0,1E0,2.02944E0,6.0249335E-1,1.22952E0,9.741061E-3,1E0,-1.122571E-2,1E0,1E0,1E0,3.5665E-1,1E0,3.4999665E-2,1E0,1E0,4.382478E-2,9.039467E-3,8.136656E-3,-9.266398E-3,1.4512212E-2,1.5353377E-3,3.6116436E-2,1.6189367E-2,-1.0381848E-2,-4.608918E-2,3.0118883E-2,6.452818E-3,2.1253187E-2,-2.8501129E-2,6.6706655E-4,-5.9499394E-2,-1.10806525E-2,3.185711E-2,3.4348115E-2,4.203636E-3,-3.1172073E-2,2.1075701E-2,3.1495746E-2,-4.4135507E-3,-8.64397E-3,-3.317119E-2],"split_indices":[2048,341,2048,2051,1171,2049,959,1034,1,953,292,809,1171,600,1737,1066,102,2048,2050,2048,0,1,0,535,695,146,2049,932,0,1011,273,0,0,0,0,0,0,0,0,0,0,0,0,0,0,0,0,0,0,0,0,0,0,0,0,0,0],"split_type":[0,0,0,0,0,0,0,0,0,0,0,0,0,0,0,0,0,0,0,0,0,0,0,0,0,0,0,0,0,0,0,0,0,0,0,0,0,0,0,0,0,0,0,0,0,0,0,0,0,0,0,0,0,0,0,0,0],"sum_hessian":[1.246E3,4.63E2,7.83E2,4.44E2,1.9E1,6.67E2,1.16E2,2.4E1,4.2E2,1.4E1,5E0,7.2E1,5.95E2,1.01E2,1.5E1,2.1E1,3E0,2.93E2,1.27E2,1.2E1,2E0,4E0,1E0,6.4E1,8E0,4.68E2,1.27E2,9.8E1,3E0,1.2E1,3E0,1.9E1,2E0,1E0,2E0,1.12E2,1.81E2,2.8E1,9.9E1,3E0,9E0,3E0,1E0,6.2E1,2E0,6E0,2E0,4.58E2,1E1,1.5E1,1.12E2,9.3E1,5E0,1E1,2E0,2E0,1E0],"tree_param":{"num_deleted":"0","num_feature":"2057","num_nodes":"57","size_leaf_vector":"1"}},{"base_weights":[-7.322804E-3,4.265819E-3,-3.208255E-1,3.206659E-2,-1.0460037E-1,-3.7805098E-1,2.1258864E-1,3.926044E-2,-5.993292E-1,-1.3001946E-1,3.6489993E-1,3.1224012E-1,-4.2145666E-1,9.624978E-3,2.7575154E-2,2.0073475E-1,1.5761478E-2,-7.012447E-1,-7.5044823E-3,-7.878725E-2,-3.3991796E-1,4.8406735E-1,-1.9368057E-1,2.9657623E-2,7.811191E-3,-4.5148817E-1,8.941726E-2,-4.7018337E-3,5.856831E-3,1.9140005E-2,-2.0364953E-2,1.7314577E-3,-4.237794E-2,-5.9579E-2,-1.4132109E-2,-4.194881E-3,-3.7399225E-2,-3.171231E-2,1.6203789E-2,1.6001388E-2,4.5246713E-2,-2.9518318E-3,-2.0289835E-2,-4.2833623E-2,-2.4629075E-2,1.4979E-2,-4.2489287E-3],"categories":[],"categories_nodes":[],"categories_segments":[],"categories_sizes":[],"default_left":[0,0,0,0,0,0,0,0,0,0,0,0,0,0,0,0,0,0,0,0,0,0,0,0,0,0,0,0,0,0,0,0,0,0,0,0,0,0,0,0,0,0,0,0,0,0,0],"id":18,"left_children":[1,3,5,7,9,11,13,15,17,19,21,23,25,27,-1,29,31,33,-1,35,37,39,41,-1,-1,43,45,-1,-1,-1,-1,-1,-1,-1,-1,-1,-1,-1,-1,-1,-1,-1,-1,-1,-1,-1,-1],"loss_changes":[4.586296E0,3.6897094E0,1.4539895E0,4.4339714E0,3.0071425E0,1.3600612E0,1.3074067E-1,3.6433303E0,5.009463E-1,2.5110598E0,9.590943E-1,1.4525056E-3,6.38721E-1,1.7350115E-2,0E0,2.200284E0,2.7065272E0,7.3785305E-2,0E0,1.9318632E0,1.4898067E0,1.4157581E-1,1.8835627E-2,0E0,0E0,2.811885E-1,5.1771104E-2,0E0,0E0,0E0,0E0,0E0,0E0,0E0,0E0,0E0,0E0,0E0,0E0,0E0,0E0,0E0,0E0,0E0,0E0,0E0,0E0],"parents":[2147483647,0,0,1,1,2,2,3,3,4,4,5,5,6,6,7,7,8,8,9,9,10,10,11,11,12,12,13,13,15,15,16,16,17,17,19,19,20,20,21,21,22,22,25,25,26,26],"right_children":[2,4,6,8,10,12,14,16,18,20,22,24,26,28,-1,30,32,34,-1,36,38,40,42,-1,-1,44,46,-1,-1,-1,-1,-1,-1,-1,-1,-1,-1,-1,-1,-1,-1,-1,-1,-1,-1,-1,-1],"split_conditions":[1E0,1E0,5.5385E-1,1E0,1E0,3.9885834E-1,1E0,5.1047164E-1,1E0,1E0,6.642E-1,1E0,1E0,1E0,2.7575154E-2,1E0,1E0,1E0,-7.5044823E-3,1E0,1E0,1E0,1E0,2.9657623E-2,7.811191E-3,7.548367E-1,1E0,-4.7018337E-3,5.856831E-3,1.9140005E-2,-2.0364953E-2,1.7314577E-3,-4.237794E-2,-5.9579E-2,-1.4132109E-2,-4.194881E-3,-3.7399225E-2,-3.171231E-2,1.6203789E-2,1.6001388E-2,4.5246713E-2,-2.9518318E-3,-2.0289835E-2,-4.2833623E-2,-2.4629075E-2,1.4979E-2,-4.2489287E-3],"split_indices":[1049,1160,2049,278,1434,2050,114,2050,787,1357,2049,108,1260,1,0,14,56,552,0,1243,667,935,1,0,0,2050,262,0,0,0,0,0,0,0,0,0,0,0,0,0,0,0,0,0,0,0,0],"split_type":[0,0,0,0,0,0,0,0,0,0,0,0,0,0,0,0,0,0,0,0,0,0,0,0,0,0,0,0,0,0,0,0,0,0,0,0,0,0,0,0,0,0,0,0,0,0,0],"sum_hessian":[1.261E3,1.217E3,4.4E1,9.7E2,2.47E2,4E1,4E0,9.6E2,1E1,2.35E2,1.2E1,2E0,3.8E1,2E0,2E0,1.21E2,8.39E2,8E0,2E0,1.9E2,4.5E1,1E1,2E0,1E0,1E0,3.6E1,2E0,1E0,1E0,1.12E2,9E0,8.31E2,8E0,7E0,1E0,1.79E2,1.1E1,4.1E1,4E0,3E0,7E0,1E0,1E0,2.1E1,1.5E1,1E0,1E0],"tree_param":{"num_deleted":"0","num_feature":"2057","num_nodes":"47","size_leaf_vector":"1"}},{"base_weights":[-7.0728078E-3,1.3650642E-1,-8.982273E-2,1.479E-1,-3.4614748E-1,-3.941197E-2,-2.104721E-1,1.5583065E-1,-4.702275E-1,-5.022627E-2,-2.13793E-1,-3.0753076E-2,-5.747704E-1,-2.559481E-1,1.527096E-1,1.091272E-1,2.6480424E-1,-1.4545879E-2,-4.551789E-2,-2.467011E-1,1.9788742E-3,-5.4441188E-2,1.607761E-1,-5.778388E-2,-3.894806E-2,-2.7177158E-1,3.6026657E-2,2.748963E-1,-3.207599E-1,2.305472E-2,5.6232605E-3,2.3339907E-2,-1.1347405E-2,-2.1704333E-2,-2.979188E-3,-3.7683777E-3,-5.205008E-2,1.0243447E-2,4.0665887E-2,6.104083E-3,-1.077785E-2,-2.2684975E-2,4.996082E-2,3.902006E-2,9.474066E-3,-3.333913E-2,-6.8694046E-3],"categories":[],"categories_nodes":[],"categories_segments":[],"categories_sizes":[],"default_left":[0,0,0,0,0,0,0,0,0,0,0,0,0,0,0,0,0,0,0,0,0,0,0,0,0,0,0,0,0,0,0,0,0,0,0,0,0,0,0,0,0,0,0,0,0,0,0],"id":19,"left_children":[1,3,5,7,9,11,13,15,17,-1,19,21,23,25,27,29,31,-1,-1,33,-1,35,37,-1,39,41,-1,43,45,-1,-1,-1,-1,-1,-1,-1,-1,-1,-1,-1,-1,-1,-1,-1,-1,-1,-1],"loss_changes":[1.5077585E1,2.6028042E0,4.8877363E0,2.2988548E0,2.7587378E-1,2.619986E0,3.9533892E0,2.2562628E0,6.7420006E-2,0E0,7.674819E-2,2.5539896E0,6.8330765E-1,2.480486E0,1.6501708E0,2.177185E0,1.5096111E0,0E0,0E0,3.1123787E-2,0E0,2.156297E0,6.402414E-1,0E0,4.339348E-2,2.364605E0,0E0,6.7495763E-1,9.9484384E-2,0E0,0E0,0E0,0E0,0E0,0E0,0E0,0E0,0E0,0E0,0E0,0E0,0E0,0E0,0E0,0E0,0E0,0E0],"parents":[2147483647,0,0,1,1,2,2,3,3,4,4,5,5,6,6,7,7,8,8,10,10,11,11,12,12,13,13,14,14,15,15,16,16,19,19,21,21,22,22,24,24,25,25,27,27,28,28],"right_children":[2,4,6,8,10,12,14,16,18,-1,20,22,24,26,28,30,32,-1,-1,34,-1,36,38,-1,40,42,-1,44,46,-1,-1,-1,-1,-1,-1,-1,-1,-1,-1,-1,-1,-1,-1,-1,-1,-1,-1],"split_conditions":[3.01308E0,1E0,4.6281E0,1E0,2.3805E-1,1E0,1E0,1E0,1E0,-5.022627E-2,1E0,1E0,1E0,1E0,1E0,3.0225E-1,1E0,-1.4545879E-2,-4.551789E-2,1E0,1.9788742E-3,1E0,1E0,-5.778388E-2,1E0,1E0,3.6026657E-2,8.391283E-1,1E0,2.305472E-2,5.6232605E-3,2.3339907E-2,-1.1347405E-2,-2.1704333E-2,-2.979188E-3,-3.7683777E-3,-5.205008E-2,1.0243447E-2,4.0665887E-2,6.104083E-3,-1.077785E-2,-2.2684975E-2,4.996082E-2,3.902006E-2,9.474066E-3,-3.333913E-2,-6.8694046E-3],"split_indices":[2048,510,2048,278,2049,1472,959,1,1199,0,104,1236,131,2030,335,2049,1965,0,0,246,0,1227,118,0,1,2043,0,2050,496,0,0,0,0,0,0,0,0,0,0,0,0,0,0,0,0,0,0],"split_type":[0,0,0,0,0,0,0,0,0,0,0,0,0,0,0,0,0,0,0,0,0,0,0,0,0,0,0,0,0,0,0,0,0,0,0,0,0,0,0,0,0,0,0,0,0,0,0],"sum_hessian":[1.267E3,4.63E2,8.04E2,4.53E2,1E1,5.68E2,2.36E2,4.48E2,5E0,2E0,8E0,5.6E2,8E0,2.1E2,2.6E1,3.15E2,1.33E2,2E0,3E0,7E0,1E0,4.99E2,6.1E1,6E0,2E0,2.06E2,4E0,2.1E1,5E0,5.5E1,2.6E2,1.25E2,8E0,6E0,1E0,4.94E2,5E0,5.7E1,4E0,1E0,1E0,2.04E2,2E0,8E0,1.3E1,3E0,2E0],"tree_param":{"num_deleted":"0","num_feature":"2057","num_nodes":"47","size_leaf_vector":"1"}},{"base_weights":[-5.106455E-3,8.482603E-2,-1.0264706E-1,2.711944E-1,6.0001656E-2,-7.107217E-2,-2.810277E-1,2.827559E-1,-2.4761729E-2,4.662932E-2,4.8161134E-1,-8.187234E-2,4.9116358E-1,-3.167229E-1,4.0341318E-1,3.1353578E-1,4.517729E-2,5.5630155E-2,-4.647806E-1,5.145381E-1,-3.1257414E-3,-6.733217E-2,-4.5713818E-1,2.290653E-1,5.6595907E-2,-2.8063878E-1,-6.876732E-2,3.9647184E-2,1.3882684E-3,2.60527E-2,-1.9948186E-2,1.2983201E-2,-1.3685145E-2,1.0205134E-2,1.6690854E-5,8.83467E-3,-4.9791057E-2,4.7239933E-2,2.2148766E-2,-4.063666E-3,-3.3704508E-2,-4.315189E-2,1.2910686E-2,2.1248927E-2,1.8533564E-3,-1.2386713E-2,-3.618734E-2],"categories":[],"categories_nodes":[],"categories_segments":[],"categories_sizes":[],"default_left":[0,0,0,0,0,0,0,0,0,0,0,0,0,0,0,0,0,0,0,0,0,0,0,0,0,0,0,0,0,0,0,0,0,0,0,0,0,0,0,0,0,0,0,0,0,0,0],"id":20,"left_children":[1,3,5,7,9,11,13,15,-1,17,19,21,23,25,27,29,31,33,35,37,-1,39,41,43,-1,45,-1,-1,-1,-1,-1,-1,-1,-1,-1,-1,-1,-1,-1,-1,-1,-1,-1,-1,-1,-1,-1],"loss_changes":[1.1228185E1,3.0649624E0,3.4382887E0,6.1120844E-1,3.2982688E0,3.215994E0,2.375445E0,5.489087E-1,0E0,2.6588383E0,3.287034E-1,2.7738237E0,4.0482783E-1,1.4825916E0,1.6932833E-1,5.45228E-1,2.8100848E-1,2.2444816E0,9.7531366E-1,1.4343834E-1,0E0,2.8819056E0,1.0537674E0,3.8995504E-2,0E0,1.744452E0,0E0,0E0,0E0,0E0,0E0,0E0,0E0,0E0,0E0,0E0,0E0,0E0,0E0,0E0,0E0,0E0,0E0,0E0,0E0,0E0,0E0],"parents":[2147483647,0,0,1,1,2,2,3,3,4,4,5,5,6,6,7,7,9,9,10,10,11,11,12,12,13,13,14,14,15,15,16,16,17,17,18,18,19,19,21,21,22,22,23,23,25,25],"right_children":[2,4,6,8,10,12,14,16,-1,18,20,22,24,26,28,30,32,34,36,38,-1,40,42,44,-1,46,-1,-1,-1,-1,-1,-1,-1,-1,-1,-1,-1,-1,-1,-1,-1,-1,-1,-1,-1,-1,-1],"split_conditions":[3.4737E0,1.22952E0,1E0,1E0,1E0,1E0,1E0,1E0,-2.4761729E-2,1E0,1E0,1E0,8.66694E-1,1E0,1E0,1E0,6.181E-1,4.188E-1,7.091117E-1,1E0,-3.1257414E-3,1E0,1E0,1E0,5.6595907E-2,1E0,-6.876732E-2,3.9647184E-2,1.3882684E-3,2.60527E-2,-1.9948186E-2,1.2983201E-2,-1.3685145E-2,1.0205134E-2,1.6690854E-5,8.83467E-3,-4.9791057E-2,4.7239933E-2,2.2148766E-2,-4.063666E-3,-3.3704508E-2,-4.315189E-2,1.2910686E-2,2.1248927E-2,1.8533564E-3,-1.2386713E-2,-3.618734E-2],"split_indices":[2048,2048,675,14,652,978,1322,1972,0,374,119,8,2056,424,74,189,2049,2049,2050,1855,0,1049,980,43,0,1855,0,0,0,0,0,0,0,0,0,0,0,0,0,0,0,0,0,0,0,0,0],"split_type":[0,0,0,0,0,0,0,0,0,0,0,0,0,0,0,0,0,0,0,0,0,0,0,0,0,0,0,0,0,0,0,0,0,0,0,0,0,0,0,0,0,0,0,0,0,0,0],"sum_hessian":[1.278E3,6.65E2,6.13E2,7.7E1,5.88E2,5.22E2,9.1E1,7.6E1,1E0,5.71E2,1.7E1,5.13E2,9E0,8.7E1,4E0,6.7E1,9E0,5.62E2,9E0,1.6E1,1E0,4.95E2,1.8E1,5E0,4E0,8.3E1,4E0,3E0,1E0,6.6E1,1E0,6E0,3E0,2.44E2,3.18E2,2E0,7E0,1.1E1,5E0,4.74E2,2.1E1,1.6E1,2E0,4E0,1E0,4.9E1,3.4E1],"tree_param":{"num_deleted":"0","num_feature":"2057","num_nodes":"47","size_leaf_vector":"1"}},{"base_weights":[7.5583225E-3,7.080833E-2,-1.2032162E-1,1.2781853E-2,1.6043122E-1,-1.07544385E-1,-6.3087815E-1,2.410718E-2,-4.630033E-1,1.4400835E-1,6.265888E-1,-9.575561E-2,-6.2085044E-1,-5.4415975E-2,-7.479372E-3,2.6890022E-1,3.52431E-3,1.7340328E-1,-5.5552468E-2,1.5137216E-1,-5.5157445E-2,5.4859456E-2,1.9221013E-2,-1.2858538E-1,8.582311E-2,-6.798491E-1,-5.954461E-3,-6.650666E-5,2.999167E-2,-4.0638307E-3,8.207983E-3,2.4581036E-2,-9.12703E-3,1.2961607E-2,-3.4629855E-2,-9.21135E-3,-5.376788E-2,1.0391423E-2,-4.6852835E-2,-6.0244545E-2,-6.6957995E-3],"categories":[],"categories_nodes":[],"categories_segments":[],"categories_sizes":[],"default_left":[0,0,0,0,0,0,0,0,0,0,0,0,0,0,0,0,0,0,0,0,0,0,0,0,0,0,0,0,0,0,0,0,0,0,0,0,0,0,0,0,0],"id":21,"left_children":[1,3,5,7,9,11,13,15,17,19,21,23,25,-1,-1,27,29,31,-1,33,-1,-1,-1,35,37,39,-1,-1,-1,-1,-1,-1,-1,-1,-1,-1,-1,-1,-1,-1,-1],"loss_changes":[1.0216089E1,4.3923717E0,2.6589746E0,2.780811E0,2.4514408E0,2.4155116E0,2.0145321E-1,2.5334396E0,1.8876059E0,2.0806623E0,8.662367E-2,2.4014723E0,2.3954034E-1,0E0,0E0,1.1153364E0,2.5078409E0,1.889889E-1,0E0,2.0608573E0,0E0,0E0,0E0,2.4069004E0,1.9107813E0,2.8611398E-1,0E0,0E0,0E0,0E0,0E0,0E0,0E0,0E0,0E0,0E0,0E0,0E0,0E0,0E0,0E0],"parents":[2147483647,0,0,1,1,2,2,3,3,4,4,5,5,6,6,7,7,8,8,9,9,10,10,11,11,12,12,15,15,16,16,17,17,19,19,23,23,24,24,25,25],"right_children":[2,4,6,8,10,12,14,16,18,20,22,24,26,-1,-1,28,30,32,-1,34,-1,-1,-1,36,38,40,-1,-1,-1,-1,-1,-1,-1,-1,-1,-1,-1,-1,-1,-1,-1],"split_conditions":[3.968E0,3.529412E-1,1E0,1E0,1E0,1E0,1E0,2.185E-1,1.6002E0,1E0,1E0,4.8E-1,1E0,-5.4415975E-2,-7.479372E-3,1.4814815E-1,1E0,1E0,-5.5552468E-2,1E0,-5.5157445E-2,5.4859456E-2,1.9221013E-2,1E0,1E0,1E0,-5.954461E-3,-6.650666E-5,2.999167E-2,-4.0638307E-3,8.207983E-3,2.4581036E-2,-9.12703E-3,1.2961607E-2,-3.4629855E-2,-9.21135E-3,-5.376788E-2,1.0391423E-2,-4.6852835E-2,-6.0244545E-2,-6.6957995E-3],"split_indices":[2048,2055,358,4,1126,1700,114,2049,2048,1913,1152,2055,252,0,0,2055,1928,305,0,785,0,0,0,203,1295,992,0,0,0,0,0,0,0,0,0,0,0,0,0,0,0],"split_type":[0,0,0,0,0,0,0,0,0,0,0,0,0,0,0,0,0,0,0,0,0,0,0,0,0,0,0,0,0,0,0,0,0,0,0,0,0,0,0,0,0],"sum_hessian":[1.261E3,8.44E2,4.17E2,5.13E2,3.31E2,4.08E2,9E0,5.02E2,1.1E1,3.21E2,1E1,4E2,8E0,8E0,1E0,3.8E1,4.64E2,3E0,8E0,3.19E2,2E0,8E0,2E0,3.39E2,6.1E1,7E0,1E0,1.1E1,2.7E1,3E2,1.64E2,2E0,1E0,3.14E2,5E0,3.32E2,7E0,5.8E1,3E0,6E0,1E0],"tree_param":{"num_deleted":"0","num_feature":"2057","num_nodes":"41","size_leaf_vector":"1"}},{"base_weights":[-2.695426E-3,-5.3920712E-2,9.5774636E-2,-7.2193258E-3,-1.6915299E-1,1.03892386E-1,-4.8421733E-2,2.8840706E-1,-2.1588143E-2,-1.849963E-1,5.9663856E-1,1.1563351E-1,-3.8905692E-1,3.4478664E-1,-2.7755836E-1,-1.4300695E-2,-5.1807976E-1,-1.9657426E-1,4.16957E-2,5.3465746E-2,1.2396221E-2,1.3866372E-1,-9.558225E-2,1.0216577E-2,-4.6066487E-1,3.8682625E-2,1.7604293E-2,-3.2594796E-2,-7.1220874E-4,-6.6187444E-5,-2.1940466E-2,-4.5181725E-2,-7.6494836E-3,-1.0410977E-3,-1.9533379E-2,1.2366905E-2,-1.3156739E-2,-1.1239821E-3,-4.5507737E-2,-4.057512E-2,-3.5388565E-3],"categories":[],"categories_nodes":[],"categories_segments":[],"categories_sizes":[],"default_left":[0,0,0,0,0,0,0,0,0,0,0,0,0,0,0,0,0,0,0,0,0,0,0,0,0,0,0,0,0,0,0,0,0,0,0,0,0,0,0,0,0],"id":22,"left_children":[1,3,5,7,9,11,-1,13,15,17,19,21,23,25,27,29,31,33,-1,-1,-1,35,37,-1,39,-1,-1,-1,-1,-1,-1,-1,-1,-1,-1,-1,-1,-1,-1,-1,-1],"loss_changes":[6.2498307E0,4.3847075E0,2.4758344E0,2.4741988E0,2.961554E0,2.4758544E0,0E0,9.5723844E-1,2.0006683E0,1.9911714E0,5.474913E-2,2.0125003E0,4.2887425E-1,3.262527E-1,1.01049036E-1,1.9191252E0,1.0380101E-1,1.9886751E0,0E0,0E0,0E0,1.8160558E0,1.5740509E0,0E0,1.5193045E-1,0E0,0E0,0E0,0E0,0E0,0E0,0E0,0E0,0E0,0E0,0E0,0E0,0E0,0E0,0E0,0E0],"parents":[2147483647,0,0,1,1,2,2,3,3,4,4,5,5,7,7,8,8,9,9,10,10,11,11,12,12,13,13,14,14,15,15,16,16,17,17,21,21,22,22,24,24],"right_children":[2,4,6,8,10,12,-1,14,16,18,20,22,24,26,28,30,32,34,-1,-1,-1,36,38,-1,40,-1,-1,-1,-1,-1,-1,-1,-1,-1,-1,-1,-1,-1,-1,-1,-1],"split_conditions":[3.846154E-1,1E0,1E0,1E0,1E0,1E0,-4.8421733E-2,1E0,1E0,1E0,1E0,1E0,1E0,5.754667E-1,1E0,1E0,1E0,6E-1,4.16957E-2,5.3465746E-2,1.2396221E-2,1E0,1E0,1.0216577E-2,1E0,3.8682625E-2,1.7604293E-2,-3.2594796E-2,-7.1220874E-4,-6.6187444E-5,-2.1940466E-2,-4.5181725E-2,-7.6494836E-3,-1.0410977E-3,-1.9533379E-2,1.2366905E-2,-1.3156739E-2,-1.1239821E-3,-4.5507737E-2,-4.057512E-2,-3.5388565E-3],"split_indices":[2055,389,635,1750,743,1086,0,1747,56,621,794,1295,116,2056,1,94,665,2054,0,0,0,1309,114,0,9,0,0,0,0,0,0,0,0,0,0,0,0,0,0,0,0],"split_type":[0,0,0,0,0,0,0,0,0,0,0,0,0,0,0,0,0,0,0,0,0,0,0,0,0,0,0,0,0,0,0,0,0,0,0,0,0,0,0,0,0],"sum_hessian":[1.237E3,8.14E2,4.23E2,5.8E2,2.34E2,4.19E2,4E0,2.6E1,5.54E2,2.3E2,4E0,4.1E2,9E0,2.4E1,2E0,5.47E2,7E0,2.27E2,3E0,3E0,1E0,3.7E2,4E1,1E0,8E0,1E1,1.4E1,1E0,1E0,5.21E2,2.6E1,6E0,1E0,4.7E1,1.8E2,3.52E2,1.8E1,3.5E1,5E0,7E0,1E0],"tree_param":{"num_deleted":"0","num_feature":"2057","num_nodes":"41","size_leaf_vector":"1"}},{"base_weights":[7.698983E-3,5.8495875E-2,-1.0225374E-1,3.656669E-2,1.9658203E-1,-8.1508406E-2,-4.568774E-1,1.7478931E-1,1.3615627E-2,2.511491E-1,-2.9877083E-2,-4.923084E-2,-2.7193123E-1,-5.3084946E-1,1.8856215E-1,1.9180256E-1,-3.8315E-2,-2.9304268E-2,1.08099476E-1,2.7859038E-1,-3.0400094E-1,-1.2565628E-1,1.4371671E-1,-3.7059654E-2,-6.0033387E-1,-3.3776632E-1,2.2776166E-1,-5.7009405E-1,-9.4745755E-3,2.124361E-2,1.3838481E-3,1.8116627E-2,-5.6696055E-3,-3.5800072E-3,2.2774816E-2,7.214239E-3,4.251387E-2,2.3460945E-2,-4.2260416E-2,-2.852767E-2,-3.7448525E-3,-1.321509E-2,8.057073E-3,4.261968E-3,2.4547417E-2,-1.6567258E-3,-3.153002E-2,-5.267248E-2,-1.0076037E-2,-3.5933137E-2,-4.425608E-3,-1.4816112E-2,2.6196457E-2,-1.1073866E-2,-4.6987507E-2],"categories":[],"categories_nodes":[],"categories_segments":[],"categories_sizes":[],"default_left":[0,0,0,0,0,0,0,0,0,0,0,0,0,0,0,0,0,0,0,0,0,0,0,0,0,0,0,0,0,0,0,0,0,0,0,0,0,0,0,0,0,0,0,0,0,0,0,0,0,0,0,0,0,0,0],"id":23,"left_children":[1,3,5,7,9,11,13,15,17,19,21,23,25,27,29,31,-1,33,35,37,39,41,43,45,47,49,51,53,-1,-1,-1,-1,-1,-1,-1,-1,-1,-1,-1,-1,-1,-1,-1,-1,-1,-1,-1,-1,-1,-1,-1,-1,-1,-1,-1],"loss_changes":[7.1048436E0,2.6272733E0,2.9201894E0,2.383232E0,1.4780111E0,2.3283854E0,1.1504774E0,1.2819171E0,2.6228511E0,1.5471597E0,4.1709906E-1,2.1711302E0,1.8862829E0,2.5618505E-1,3.4959815E-2,9.7186375E-1,0E0,2.1709118E0,1.4845693E0,1.2439752E0,5.0942004E-2,1.5981948E-1,1.1643422E-1,1.8659095E0,1.0991311E-1,1.5168839E0,3.4883502E-1,5.2730083E-2,0E0,0E0,0E0,0E0,0E0,0E0,0E0,0E0,0E0,0E0,0E0,0E0,0E0,0E0,0E0,0E0,0E0,0E0,0E0,0E0,0E0,0E0,0E0,0E0,0E0,0E0,0E0],"parents":[2147483647,0,0,1,1,2,2,3,3,4,4,5,5,6,6,7,7,8,8,9,9,10,10,11,11,12,12,13,13,14,14,15,15,17,17,18,18,19,19,20,20,21,21,22,22,23,23,24,24,25,25,26,26,27,27],"right_children":[2,4,6,8,10,12,14,16,18,20,22,24,26,28,30,32,-1,34,36,38,40,42,44,46,48,50,52,54,-1,-1,-1,-1,-1,-1,-1,-1,-1,-1,-1,-1,-1,-1,-1,-1,-1,-1,-1,-1,-1,-1,-1,-1,-1,-1,-1],"split_conditions":[3.9988E0,1E0,1E0,1.6002E0,1E0,5.447E0,1E0,1E0,1E0,1E0,1E0,1E0,1E0,1E0,1E0,1E0,-3.8315E-2,1E0,1E0,1E0,1E0,1E0,1E0,1E0,1E0,1E0,1E0,1E0,-9.4745755E-3,2.124361E-2,1.3838481E-3,1.8116627E-2,-5.6696055E-3,-3.5800072E-3,2.2774816E-2,7.214239E-3,4.251387E-2,2.3460945E-2,-4.2260416E-2,-2.852767E-2,-3.7448525E-3,-1.321509E-2,8.057073E-3,4.261968E-3,2.4547417E-2,-1.6567258E-3,-3.153002E-2,-5.267248E-2,-1.0076037E-2,-3.5933137E-2,-4.425608E-3,-1.4816112E-2,2.6196457E-2,-1.1073866E-2,-4.6987507E-2],"split_indices":[2048,1028,222,2048,1391,2048,980,990,1928,25,310,635,233,385,45,1911,0,1699,652,46,841,456,1171,262,52,322,1,1088,0,0,0,0,0,0,0,0,0,0,0,0,0,0,0,0,0,0,0,0,0,0,0,0,0,0,0],"split_type":[0,0,0,0,0,0,0,0,0,0,0,0,0,0,0,0,0,0,0,0,0,0,0,0,0,0,0,0,0,0,0,0,0,0,0,0,0,0,0,0,0,0,0,0,0,0,0,0,0,0,0,0,0,0,0],"sum_hessian":[1.27E3,8.69E2,4.01E2,7.51E2,1.18E2,3.8E2,2.1E1,1.06E2,6.45E2,9.5E1,2.3E1,3.26E2,5.4E1,1.9E1,2E0,1.04E2,2E0,4.44E2,2.01E2,9.1E1,4E0,1.5E1,8E0,3.2E2,6E0,4.8E1,6E0,1.7E1,2E0,1E0,1E0,9.2E1,1.2E1,4.24E2,2E1,1.94E2,7E0,9E1,1E0,3E0,1E0,1.3E1,2E0,6E0,2E0,3.07E2,1.3E1,5E0,1E0,3.4E1,1.4E1,1E0,5E0,1E0,1.6E1],"tree_param":{"num_deleted":"0","num_feature":"2057","num_nodes":"55","size_leaf_vector":"1"}},{"base_weights":[-4.2191413E-3,1.408274E-1,-4.597291E-2,1.20858826E-1,3.842041E-1,1.2604143E-1,-6.494744E-2,1.2936462E-1,-5.2754577E-2,4.046129E-2,2.2771439E-1,1.9003227E-1,-3.4839565E-1,-7.397294E-2,2.769212E-1,1.3937573E-1,-2.5546938E-2,2.2668337E-2,1.0729774E-2,2.4644528E-1,-1.8308616E-1,-4.5339006E-1,3.2261726E-2,-6.735519E-2,-5.382196E-1,3.6479735E-1,-3.4441516E-2,2.6887516E-2,9.406151E-3,6.8527204E-3,3.1120915E-2,-2.0962078E-2,1.1286026E-2,-4.2766627E-2,-4.6945415E-3,-3.3466986E-3,-1.4010734E-2,-4.5038998E-2,-1.0630912E-2,-4.2471024E-3,3.2926362E-2],"categories":[],"categories_nodes":[],"categories_segments":[],"categories_sizes":[],"default_left":[0,0,0,0,0,0,0,0,0,0,0,0,0,0,0,0,0,0,0,0,0,0,0,0,0,0,0,0,0,0,0,0,0,0,0,0,0,0,0,0,0],"id":24,"left_children":[1,3,5,7,9,11,13,15,-1,-1,17,19,21,23,25,27,-1,-1,-1,29,31,33,-1,35,37,39,-1,-1,-1,-1,-1,-1,-1,-1,-1,-1,-1,-1,-1,-1,-1],"loss_changes":[7.6676173E0,1.3289137E0,3.2165906E0,1.8308387E0,2.8431726E-1,3.0414498E0,2.754269E0,1.2169194E0,0E0,0E0,1.927793E-2,1.8763607E0,1.1298898E0,2.618184E0,1.5868958E0,1.05827E0,0E0,0E0,0E0,1.7088017E0,3.4403646E-1,3.211515E-1,0E0,2.3390017E0,4.5657396E-2,4.3239236E-1,0E0,0E0,0E0,0E0,0E0,0E0,0E0,0E0,0E0,0E0,0E0,0E0,0E0,0E0,0E0],"parents":[2147483647,0,0,1,1,2,2,3,3,4,4,5,5,6,6,7,7,10,10,11,11,12,12,13,13,14,14,15,15,19,19,20,20,21,21,23,23,24,24,25,25],"right_children":[2,4,6,8,10,12,14,16,-1,-1,18,20,22,24,26,28,-1,-1,-1,30,32,34,-1,36,38,40,-1,-1,-1,-1,-1,-1,-1,-1,-1,-1,-1,-1,-1,-1,-1],"split_conditions":[2.4662E0,1E0,2.2445E-1,1E0,6E-1,1E0,1E0,1E0,-5.2754577E-2,4.046129E-2,1E0,5.11618E0,1E0,1E0,1E0,2.8365E-1,-2.5546938E-2,2.2668337E-2,1.0729774E-2,2.6666668E-1,1E0,1E0,3.2261726E-2,4.6735E0,1E0,2.7555E-1,-3.4441516E-2,2.6887516E-2,9.406151E-3,6.8527204E-3,3.1120915E-2,-2.0962078E-2,1.1286026E-2,-4.2766627E-2,-4.6945415E-3,-3.3466986E-3,-1.4010734E-2,-4.5038998E-2,-1.0630912E-2,-4.2471024E-3,3.2926362E-2],"split_indices":[2048,2009,2049,2028,2051,809,1434,307,0,0,1171,2048,1,455,392,2049,0,0,0,2053,310,1312,0,2048,1649,2049,0,0,0,0,0,0,0,0,0,0,0,0,0,0,0],"split_type":[0,0,0,0,0,0,0,0,0,0,0,0,0,0,0,0,0,0,0,0,0,0,0,0,0,0,0,0,0,0,0,0,0,0,0,0,0,0,0,0,0],"sum_hessian":[1.264E3,2.82E2,9.82E2,2.62E2,2E1,9.7E1,8.85E2,2.6E2,2E0,1E1,1E1,8.6E1,1.1E1,8.63E2,2.2E1,2.55E2,5E0,5E0,5E0,7.5E1,1.1E1,1E1,1E0,8.52E2,1.1E1,2E1,2E0,2.4E1,2.31E2,3.6E1,3.9E1,9E0,2E0,8E0,2E0,6.9E2,1.62E2,1E1,1E0,2E0,1.8E1],"tree_param":{"num_deleted":"0","num_feature":"2057","num_nodes":"41","size_leaf_vector":"1"}},{"base_weights":[7.752497E-3,1.2266189E-1,-3.917312E-2,2.2835869E-1,8.636239E-2,-1.5739407E-1,-1.4511613E-2,2.559777E-1,-4.6396834E-1,9.883354E-2,-2.2759861E-1,-1.8216689E-1,4.0301487E-1,3.0747836E-2,-7.2503425E-2,2.825934E-1,-1.7261274E-1,-4.5999367E-2,-5.2358746E-3,1.0907717E-1,-3.0161685E-1,-3.912156E-1,4.69849E-2,-2.1036239E-1,1.9837202E-1,4.3807633E-2,2.7709007E-2,6.048842E-2,-1.1922591E-1,1.5923882E-1,-9.5973745E-2,2.420063E-2,-1.6500758E-2,-2.660572E-2,7.856254E-3,9.238675E-3,-3.8941104E-2,-7.919135E-3,-3.4307223E-2,-3.3933897E-2,-7.738676E-3,7.3822984E-3,-5.3676176E-3,-1.821968E-2,2.4919864E-2,2.3002211E-2,2.7103787E-3,5.109992E-3,-1.7849111E-3,6.3499603E-3,-1.845625E-2,-1.1135554E-2,5.114281E-2,-2.1924466E-2,1.7236074E-2,-1.2651479E-2,1.1634853E-3],"categories":[],"categories_nodes":[],"categories_segments":[],"categories_sizes":[],"default_left":[0,0,0,0,0,0,0,0,0,0,0,0,0,0,0,0,0,0,0,0,0,0,0,0,0,0,0,0,0,0,0,0,0,0,0,0,0,0,0,0,0,0,0,0,0,0,0,0,0,0,0,0,0,0,0,0,0],"id":25,"left_children":[1,3,5,7,9,11,13,15,17,19,21,23,25,27,29,31,33,-1,-1,35,37,39,41,43,45,-1,47,49,51,53,55,-1,-1,-1,-1,-1,-1,-1,-1,-1,-1,-1,-1,-1,-1,-1,-1,-1,-1,-1,-1,-1,-1,-1,-1,-1,-1],"loss_changes":[6.9553432E0,1.4152193E0,2.6683197E0,1.935298E0,1.1188211E0,2.2669153E0,1.9943596E0,1.0982437E0,1.3934857E-1,1.1404574E0,5.1257306E-1,1.6726117E0,3.6466014E-1,1.9117627E0,1.8264908E0,9.093628E-1,2.925758E-1,0E0,0E0,1.0639341E0,1.380024E-1,2.6907206E-2,3.202709E-2,1.3591433E0,1.5157816E-1,0E0,6.852234E-3,1.9816225E0,1.1643753E0,8.140946E-1,2.0841625E0,0E0,0E0,0E0,0E0,0E0,0E0,0E0,0E0,0E0,0E0,0E0,0E0,0E0,0E0,0E0,0E0,0E0,0E0,0E0,0E0,0E0,0E0,0E0,0E0,0E0,0E0],"parents":[2147483647,0,0,1,1,2,2,3,3,4,4,5,5,6,6,7,7,8,8,9,9,10,10,11,11,12,12,13,13,14,14,15,15,16,16,19,19,20,20,21,21,22,22,23,23,24,24,26,26,27,27,28,28,29,29,30,30],"right_children":[2,4,6,8,10,12,14,16,18,20,22,24,26,28,30,32,34,-1,-1,36,38,40,42,44,46,-1,48,50,52,54,56,-1,-1,-1,-1,-1,-1,-1,-1,-1,-1,-1,-1,-1,-1,-1,-1,-1,-1,-1,-1,-1,-1,-1,-1,-1,-1],"split_conditions":[2.6984E0,5E-1,1.5E-1,1E0,1E0,1E0,3.968E0,1E0,1E0,1E0,6.315687E-1,1E0,1E0,1E0,1.8181819E-1,1E0,1E0,-4.5999367E-2,-5.2358746E-3,1E0,2.3135E0,1E0,1E0,1E0,4.9217E0,4.3807633E-2,1E0,1E0,1E0,4E-1,4.2307693E-1,2.420063E-2,-1.6500758E-2,-2.660572E-2,7.856254E-3,9.238675E-3,-3.8941104E-2,-7.919135E-3,-3.4307223E-2,-3.3933897E-2,-7.738676E-3,7.3822984E-3,-5.3676176E-3,-1.821968E-2,2.4919864E-2,2.3002211E-2,2.7103787E-3,5.109992E-3,-1.7849111E-3,6.3499603E-3,-1.845625E-2,-1.1135554E-2,5.114281E-2,-2.1924466E-2,1.7236074E-2,-1.2651479E-2,1.1634853E-3],"split_indices":[2048,2051,2055,235,1610,1118,2048,1070,364,165,2056,1691,841,350,2055,1911,1171,0,0,1806,2048,787,62,1279,2048,0,4,116,63,2051,2055,0,0,0,0,0,0,0,0,0,0,0,0,0,0,0,0,0,0,0,0,0,0,0,0,0,0],"split_type":[0,0,0,0,0,0,0,0,0,0,0,0,0,0,0,0,0,0,0,0,0,0,0,0,0,0,0,0,0,0,0,0,0,0,0,0,0,0,0,0,0,0,0,0,0,0,0,0,0,0,0,0,0,0,0,0,0],"sum_hessian":[1.288E3,3.73E2,9.15E2,9.4E1,2.79E2,1.57E2,7.58E2,9.1E1,3E0,2.69E2,1E1,1.51E2,6E0,4.26E2,3.32E2,8.6E1,5E0,2E0,1E0,2.63E2,6E0,6E0,4E0,1.41E2,1E1,4E0,2E0,3.56E2,7E1,3E1,3.02E2,8.3E1,3E0,3E0,2E0,2.61E2,2E0,3E0,3E0,5E0,1E0,3E0,1E0,1.37E2,4E0,6E0,4E0,1E0,1E0,3.35E2,2.1E1,6.9E1,1E0,3E0,2.7E1,1.93E2,1.09E2],"tree_param":{"num_deleted":"0","num_feature":"2057","num_nodes":"57","size_leaf_vector":"1"}},{"base_weights":[-3.6141796E-3,1.14856735E-1,-3.7652384E-2,1.7630273E-2,1.6715305E-1,-6.1687108E-2,1.2718412E-1,3.7698247E-2,-5.0433736E-2,1.8090165E-1,-2.6170653E-1,-5.5554207E-2,-6.940979E-1,1.4806096E-1,-3.9512146E-1,7.500631E-2,-1.6876574E-1,2.6347968E-1,9.0366304E-2,-8.008501E-2,-3.333064E-2,-4.9231082E-2,-5.24738E-1,-5.919859E-2,-1.4916229E-2,2.5018454E-1,6.7789085E-2,-3.973668E-2,4.490709E-4,7.124569E-3,-4.2524327E-2,1.3776405E-2,-2.1468708E-2,2.2555733E-2,-2.9776024E-2,8.074739E-3,-3.18936E-2,-8.269765E-3,-4.0895224E-4,-9.682198E-3,-5.1570364E-4,-5.7446778E-2,-1.1928402E-2,1.602614E-2,4.3366466E-2,8.615168E-3,-3.651962E-2],"categories":[],"categories_nodes":[],"categories_segments":[],"categories_sizes":[],"default_left":[0,0,0,0,0,0,0,0,0,0,0,0,0,0,0,0,0,0,0,0,0,0,0,0,0,0,0,0,0,0,0,0,0,0,0,0,0,0,0,0,0,0,0,0,0,0,0],"id":26,"left_children":[1,3,5,7,9,11,13,15,-1,17,19,21,23,25,27,29,31,33,35,37,-1,39,41,-1,-1,43,45,-1,-1,-1,-1,-1,-1,-1,-1,-1,-1,-1,-1,-1,-1,-1,-1,-1,-1,-1,-1],"loss_changes":[5.0046706E0,1.405483E0,3.8270206E0,1.2982646E0,1.1086626E0,3.2271473E0,1.3997052E0,7.5212467E-1,0E0,1.2845306E0,1.3546187E-1,2.4513667E0,4.8372746E-2,9.585607E-1,2.0633554E-1,7.461966E-1,5.55588E-1,1.1731973E0,4.795282E-1,6.4551868E-3,0E0,2.5334492E0,6.918316E-1,0E0,0E0,6.4817834E-1,1.4716663E0,0E0,0E0,0E0,0E0,0E0,0E0,0E0,0E0,0E0,0E0,0E0,0E0,0E0,0E0,0E0,0E0,0E0,0E0,0E0,0E0],"parents":[2147483647,0,0,1,1,2,2,3,3,4,4,5,5,6,6,7,7,9,9,10,10,11,11,12,12,13,13,14,14,15,15,16,16,17,17,18,18,19,19,21,21,22,22,25,25,26,26],"right_children":[2,4,6,8,10,12,14,16,-1,18,20,22,24,26,28,30,32,34,36,38,-1,40,42,-1,-1,44,46,-1,-1,-1,-1,-1,-1,-1,-1,-1,-1,-1,-1,-1,-1,-1,-1,-1,-1,-1,-1],"split_conditions":[2.5051E0,2.9411766E-1,1E0,1E0,1E0,1E0,1E0,1E0,-5.0433736E-2,7E-1,2.3135E0,1E0,1E0,6.857617E-1,1E0,1E0,3.2E-1,1E0,1E0,1E0,-3.333064E-2,2.4E-1,1E0,-5.919859E-2,-1.4916229E-2,1E0,1E0,-3.973668E-2,4.490709E-4,7.124569E-3,-4.2524327E-2,1.3776405E-2,-2.1468708E-2,2.2555733E-2,-2.9776024E-2,8.074739E-3,-3.18936E-2,-8.269765E-3,-4.0895224E-4,-9.682198E-3,-5.1570364E-4,-5.7446778E-2,-1.1928402E-2,1.602614E-2,4.3366466E-2,8.615168E-3,-3.651962E-2],"split_indices":[2048,2055,1670,1782,1792,424,1602,1745,0,2051,2048,195,801,2050,230,93,2049,563,164,1,0,2055,935,0,0,352,1816,0,0,0,0,0,0,0,0,0,0,0,0,0,0,0,0,0,0,0,0],"split_type":[0,0,0,0,0,0,0,0,0,0,0,0,0,0,0,0,0,0,0,0,0,0,0,0,0,0,0,0,0,0,0,0,0,0,0,0,0,0,0,0,0,0,0,0,0,0,0],"sum_hessian":[1.239E3,2.76E2,9.63E2,9.7E1,1.79E2,8.41E2,1.22E2,9.5E1,2E0,1.74E2,5E0,8.34E2,7E0,1.18E2,4E0,8.1E1,1.4E1,9E1,8.4E1,3E0,2E0,8.24E2,1E1,6E0,1E0,5.1E1,6.7E1,3E0,1E0,8E1,1E0,3E0,1.1E1,8.8E1,2E0,8.3E1,1E0,2E0,1E0,3.07E2,5.17E2,6E0,4E0,4.5E1,6E0,6.3E1,4E0],"tree_param":{"num_deleted":"0","num_feature":"2057","num_nodes":"47","size_leaf_vector":"1"}},{"base_weights":[4.2790035E-3,-1.5250872E-1,3.280813E-2,-1.6978584E-1,4.2865705E-1,5.2886266E-2,-1.1819108E-1,-1.437561E-1,-4.923264E-1,6.3034093E-1,1.6859492E-2,2.4943028E-1,3.6926653E-2,-1.9017969E-1,1.4570323E-1,5.279244E-2,-1.8185346E-1,-5.4678184E-1,8.623755E-3,1.7910241E-3,6.604235E-2,6.868095E-3,-4.844956E-3,2.7634752E-1,-3.6942568E-2,4.7745273E-2,-2.0036535E-1,-2.4565673E-1,2.019956E-2,2.5899413E-1,-1.6989832E-1,-5.2711004E-3,2.1102171E-2,-8.235503E-3,-2.5110383E-2,-5.170807E-2,-1.2893098E-2,2.4995372E-2,-1.2858831E-2,7.6704905E-3,2.9692362E-4,1.2766508E-2,-2.165168E-2,-2.1345625E-2,3.0918533E-2,-1.4236867E-2,1.1691645E-2,-1.3742128E-2,2.9636515E-2,-2.2224514E-2,2.341834E-2],"categories":[],"categories_nodes":[],"categories_segments":[],"categories_sizes":[],"default_left":[0,0,0,0,0,0,0,0,0,0,0,0,0,0,0,0,0,0,0,0,0,0,0,0,0,0,0,0,0,0,0,0,0,0,0,0,0,0,0,0,0,0,0,0,0,0,0,0,0,0,0],"id":27,"left_children":[1,3,5,7,9,11,13,15,17,19,21,23,25,27,29,31,33,35,-1,-1,-1,-1,-1,37,-1,39,41,43,45,47,49,-1,-1,-1,-1,-1,-1,-1,-1,-1,-1,-1,-1,-1,-1,-1,-1,-1,-1,-1,-1],"loss_changes":[5.7528296E0,2.060874E0,3.3048308E0,1.5495849E0,4.8769033E-1,3.005222E0,2.459375E0,1.3574369E0,5.164609E-1,4.5617974E-1,2.1223627E-2,1.5059714E0,2.294349E0,1.1837556E0,1.0451367E0,7.6857746E-1,1.5408297E0,3.9497495E-1,0E0,0E0,0E0,0E0,0E0,1.1545644E0,0E0,1.8055444E0,1.0297843E0,1.1733856E0,5.750735E-1,1.0719448E0,4.8069224E-1,0E0,0E0,0E0,0E0,0E0,0E0,0E0,0E0,0E0,0E0,0E0,0E0,0E0,0E0,0E0,0E0,0E0,0E0,0E0,0E0],"parents":[2147483647,0,0,1,1,2,2,3,3,4,4,5,5,6,6,7,7,8,8,9,9,10,10,11,11,12,12,13,13,14,14,15,15,16,16,17,17,23,23,25,25,26,26,27,27,28,28,29,29,30,30],"right_children":[2,4,6,8,10,12,14,16,18,20,22,24,26,28,30,32,34,36,-1,-1,-1,-1,-1,38,-1,40,42,44,46,48,50,-1,-1,-1,-1,-1,-1,-1,-1,-1,-1,-1,-1,-1,-1,-1,-1,-1,-1,-1,-1],"split_conditions":[1.5E-1,1E0,4.9217E0,1E0,1E0,2.2445E-1,1E0,2.66234E0,1E0,1E0,1E0,1E0,1E0,1E0,1E0,2.2953E0,1E0,1E0,8.623755E-3,1.7910241E-3,6.604235E-2,6.868095E-3,-4.844956E-3,1E0,-3.6942568E-2,3.0439E0,5.8061665E-1,1E0,1E0,1E0,1E0,-5.2711004E-3,2.1102171E-2,-8.235503E-3,-2.5110383E-2,-5.170807E-2,-1.2893098E-2,2.4995372E-2,-1.2858831E-2,7.6704905E-3,2.9692362E-4,1.2766508E-2,-2.165168E-2,-2.1345625E-2,3.0918533E-2,-1.4236867E-2,1.1691645E-2,-1.3742128E-2,2.9636515E-2,-2.2224514E-2,2.341834E-2],"split_indices":[2055,1581,2048,502,119,2049,666,2048,1071,389,30,62,341,283,407,2048,389,385,0,0,0,0,0,1665,0,2048,2050,638,1855,1325,456,0,0,0,0,0,0,0,0,0,0,0,0,0,0,0,0,0,0,0,0],"split_type":[0,0,0,0,0,0,0,0,0,0,0,0,0,0,0,0,0,0,0,0,0,0,0,0,0,0,0,0,0,0,0,0,0,0,0,0,0,0,0,0,0,0,0,0,0,0,0,0,0,0,0],"sum_hessian":[1.284E3,1.97E2,1.087E3,1.92E2,5E0,9.6E2,1.27E2,1.79E2,1.3E1,3E0,2E0,7.1E1,8.89E2,1E2,2.7E1,2.9E1,1.5E2,1.2E1,1E0,1E0,2E0,1E0,1E0,6.9E1,2E0,8.51E2,3.8E1,7.9E1,2.1E1,2E1,7E0,1.9E1,1E1,9.5E1,5.5E1,9E0,3E0,6.4E1,5E0,4.06E2,4.45E2,6E0,3.2E1,7.7E1,2E0,8E0,1.3E1,4E0,1.6E1,6E0,1E0],"tree_param":{"num_deleted":"0","num_feature":"2057","num_nodes":"51","size_leaf_vector":"1"}},{"base_weights":[5.432527E-3,1.3902668E-2,-2.8803155E-1,2.4599502E-2,-1.2643726E-1,-3.341638E-1,1.5303442E-1,3.2364905E-2,-1.8723443E-1,-2.025308E-1,3.1643653E-1,-5.435909E-1,-2.285797E-1,1.7318137E-2,-1.4916991E-3,3.6548965E-2,-3.8061538E-1,-2.4184868E-1,4.5356598E-2,-1.3321595E-1,-4.6628818E-1,3.5565266E-1,-6.166277E-3,-1.6380142E-2,-6.0270673E-1,-2.4782974E-1,7.7968454E-3,3.1241386E-3,-5.1616564E-2,2.1042801E-2,-4.422999E-2,1.3180146E-2,-2.3562374E-2,-1.3857842E-2,2.045747E-2,-4.8859227E-2,-1.7116107E-2,3.0823175E-2,1.1858034E-3,-5.183941E-2,-1.1428213E-2,-2.2191614E-2,2.5506557E-3],"categories":[],"categories_nodes":[],"categories_segments":[],"categories_sizes":[],"default_left":[0,0,0,0,0,0,0,0,0,0,0,0,0,0,0,0,0,0,0,0,0,0,0,0,0,0,0,0,0,0,0,0,0,0,0,0,0,0,0,0,0,0,0],"id":28,"left_children":[1,3,5,7,9,11,13,15,17,19,21,23,25,-1,-1,27,29,31,-1,33,35,37,-1,-1,39,41,-1,-1,-1,-1,-1,-1,-1,-1,-1,-1,-1,-1,-1,-1,-1,-1,-1],"loss_changes":[3.101164E0,1.8225561E0,7.632966E-1,1.8599473E0,2.962274E0,5.833359E-1,4.760374E-2,1.8939042E0,1.7847029E0,1.2907736E0,2.2803092E-1,7.690215E-2,1.6850829E-1,0E0,0E0,1.8645626E0,1.3650497E0,8.6248875E-1,0E0,9.779041E-1,4.1609025E-1,1.1550331E-1,0E0,0E0,7.403159E-2,1.9078064E-1,0E0,0E0,0E0,0E0,0E0,0E0,0E0,0E0,0E0,0E0,0E0,0E0,0E0,0E0,0E0,0E0,0E0],"parents":[2147483647,0,0,1,1,2,2,3,3,4,4,5,5,6,6,7,7,8,8,9,9,10,10,11,11,12,12,15,15,16,16,17,17,19,19,20,20,21,21,24,24,25,25],"right_children":[2,4,6,8,10,12,14,16,18,20,22,24,26,-1,-1,28,30,32,-1,34,36,38,-1,-1,40,42,-1,-1,-1,-1,-1,-1,-1,-1,-1,-1,-1,-1,-1,-1,-1,-1,-1],"split_conditions":[1E0,1E0,1E0,1E0,1E0,1E0,1E0,1E0,1E0,7.90258E-1,1E0,2.6666668E-1,1E0,1.7318137E-2,-1.4916991E-3,1E0,1E0,5.8061665E-1,4.5356598E-2,6E-1,1E0,1E0,-6.166277E-3,-1.6380142E-2,1E0,1E0,7.7968454E-3,3.1241386E-3,-5.1616564E-2,2.1042801E-2,-4.422999E-2,1.3180146E-2,-2.3562374E-2,-1.3857842E-2,2.045747E-2,-4.8859227E-2,-1.7116107E-2,3.0823175E-2,1.1858034E-3,-5.183941E-2,-1.1428213E-2,-2.2191614E-2,2.5506557E-3],"split_indices":[9,1737,600,341,1543,926,101,424,1634,2056,270,2053,441,0,0,874,314,2050,0,2052,322,640,0,0,58,77,0,0,0,0,0,0,0,0,0,0,0,0,0,0,0,0,0],"split_type":[0,0,0,0,0,0,0,0,0,0,0,0,0,0,0,0,0,0,0,0,0,0,0,0,0,0,0,0,0,0,0,0,0,0,0,0,0,0,0,0,0,0,0],"sum_hessian":[1.245E3,1.211E3,3.4E1,1.126E3,8.5E1,3.1E1,3E0,1.087E3,3.9E1,7.3E1,1.2E1,9E0,2.2E1,2E0,1E0,1.077E3,1E1,3.7E1,2E0,5.9E1,1.4E1,1.1E1,1E0,2E0,7E0,2.1E1,1E0,1.074E3,3E0,2E0,8E0,4E0,3.3E1,5.4E1,5E0,8E0,6E0,1E1,1E0,6E0,1E0,1.9E1,2E0],"tree_param":{"num_deleted":"0","num_feature":"2057","num_nodes":"43","size_leaf_vector":"1"}},{"base_weights":[-4.801964E-3,7.169514E-2,-5.357505E-2,-8.289165E-2,9.505918E-2,-6.983541E-2,1.8197086E-1,2.0034958E-3,-3.046736E-1,1.0644538E-1,-2.2477809E-1,-5.8225933E-2,-3.9071417E-1,1.7788082E-2,3.0024844E-1,3.309659E-2,-4.754251E-1,-2.0052806E-1,-6.0684692E-2,1.1924557E-1,-1.6526619E-1,-3.3289012E-1,-7.1283183E-3,-3.210184E-2,-1.9295485E-1,-4.9903068E-1,-4.0895887E-2,-2.2658943E-1,1.2359149E-1,4.3211344E-1,7.743028E-2,5.8332924E-3,-3.2259036E-2,-1.1340956E-2,-4.5710053E-2,-4.4622035E-3,-3.029341E-2,1.0155631E-2,-2.15281E-2,-2.2235112E-2,5.4074056E-3,-3.0386288E-2,3.5822487E-3,4.281692E-3,-6.849454E-3,1.4348085E-2,-4.350677E-3,-1.728362E-2,3.922159E-2,-5.255376E-2,-3.7956603E-3,-2.8061198E-2,2.2335775E-2,-3.034037E-2,8.270592E-3,-1.4216628E-2,1.6543355E-2,3.8187787E-2,-1.3474521E-2,-1.0522703E-2,1.963847E-2],"categories":[],"categories_nodes":[],"categories_segments":[],"categories_sizes":[],"default_left":[0,0,0,0,0,0,0,0,0,0,0,0,0,0,0,0,0,0,0,0,0,0,0,0,0,0,0,0,0,0,0,0,0,0,0,0,0,0,0,0,0,0,0,0,0,0,0,0,0,0,0,0,0,0,0,0,0,0,0,0,0],"id":29,"left_children":[1,3,5,7,9,11,13,15,17,19,21,23,25,27,29,31,33,35,-1,37,39,41,43,45,47,49,51,53,55,57,59,-1,-1,-1,-1,-1,-1,-1,-1,-1,-1,-1,-1,-1,-1,-1,-1,-1,-1,-1,-1,-1,-1,-1,-1,-1,-1,-1,-1,-1,-1],"loss_changes":[4.7049007E0,1.78126E0,2.9618554E0,1.2244442E0,1.5789454E0,2.663144E0,9.656162E-1,7.2828203E-1,6.987498E-1,1.4561048E0,3.505854E-1,2.4470167E0,9.268694E-1,5.968359E-1,8.186171E-1,8.2863665E-1,1.5046239E-2,3.9145166E-1,0E0,1.2152891E0,5.172864E-1,1.9427991E-1,3.3144597E-2,2.7659893E0,1.8886008E0,1.3235574E0,7.922413E-1,3.9183486E-1,4.378404E-1,5.693705E-1,4.5368743E-1,0E0,0E0,0E0,0E0,0E0,0E0,0E0,0E0,0E0,0E0,0E0,0E0,0E0,0E0,0E0,0E0,0E0,0E0,0E0,0E0,0E0,0E0,0E0,0E0,0E0,0E0,0E0,0E0,0E0,0E0],"parents":[2147483647,0,0,1,1,2,2,3,3,4,4,5,5,6,6,7,7,8,8,9,9,10,10,11,11,12,12,13,13,14,14,15,15,16,16,17,17,19,19,20,20,21,21,22,22,23,23,24,24,25,25,26,26,27,27,28,28,29,29,30,30],"right_children":[2,4,6,8,10,12,14,16,18,20,22,24,26,28,30,32,34,36,-1,38,40,42,44,46,48,50,52,54,56,58,60,-1,-1,-1,-1,-1,-1,-1,-1,-1,-1,-1,-1,-1,-1,-1,-1,-1,-1,-1,-1,-1,-1,-1,-1,-1,-1,-1,-1,-1,-1],"split_conditions":[3.07032E0,1.4285715E-1,5.555556E-1,2.6666668E-1,1E0,1E0,1E0,1E0,1E0,1E0,1E0,1E0,5.3333336E-1,6.0714287E-1,4.6735E0,1E0,1E0,1E0,-6.0684692E-2,1E0,4E-1,1E0,4.861E-1,2.2445E-1,1E0,4.059E-1,1E0,1E0,1E0,1E0,1E0,5.8332924E-3,-3.2259036E-2,-1.1340956E-2,-4.5710053E-2,-4.4622035E-3,-3.029341E-2,1.0155631E-2,-2.15281E-2,-2.2235112E-2,5.4074056E-3,-3.0386288E-2,3.5822487E-3,4.281692E-3,-6.849454E-3,1.4348085E-2,-4.350677E-3,-1.728362E-2,3.922159E-2,-5.255376E-2,-3.7956603E-3,-2.8061198E-2,2.2335775E-2,-3.034037E-2,8.270592E-3,-1.4216628E-2,1.6543355E-2,3.8187787E-2,-1.3474521E-2,-1.0522703E-2,1.963847E-2],"split_indices":[2048,2055,2055,2053,101,203,114,1563,675,1508,600,675,2055,2055,2048,1578,61,389,0,374,2053,76,2049,2049,1771,2049,378,222,2054,387,1126,0,0,0,0,0,0,0,0,0,0,0,0,0,0,0,0,0,0,0,0,0,0,0,0,0,0,0,0,0,0],"split_type":[0,0,0,0,0,0,0,0,0,0,0,0,0,0,0,0,0,0,0,0,0,0,0,0,0,0,0,0,0,0,0,0,0,0,0,0,0,0,0,0,0,0,0,0,0,0,0,0,0,0,0,0,0,0,0,0,0,0,0,0,0],"sum_hessian":[1.259E3,4.9E2,7.69E2,6.4E1,4.26E2,7.2E2,4.9E1,4.7E1,1.7E1,4.12E2,1.4E1,6.96E2,2.4E1,2.1E1,2.8E1,4.5E1,2E0,1.5E1,2E0,3.94E2,1.8E1,9E0,5E0,5.84E2,1.12E2,1.8E1,6E0,6E0,1.5E1,1.7E1,1.1E1,4.2E1,3E0,1E0,1E0,9E0,6E0,3.87E2,7E0,1.2E1,6E0,8E0,1E0,3E0,2E0,5.5E1,5.29E2,1.09E2,3E0,1.3E1,5E0,3E0,3E0,4E0,2E0,3E0,1.2E1,1.6E1,1E0,5E0,6E0],"tree_param":{"num_deleted":"0","num_feature":"2057","num_nodes":"61","size_leaf_vector":"1"}},{"base_weights":[-3.9124773E-3,-1.1519548E-1,1.824235E-2,-8.712696E-3,-2.119188E-1,1.262925E-2,3.4091765E-1,4.379403E-2,-2.2355464E-1,-2.58902E-1,2.3446652E-1,2.5227106E-1,5.2467845E-3,4.0766254E-1,-3.1749815E-2,6.433774E-2,-4.14909E-2,7.113817E-2,-4.259447E-1,-2.9275867E-1,1.1595537E-1,3.006578E-1,4.3467283E-2,2.9883292E-1,-4.961716E-2,1.9355079E-3,5.579074E-1,4.379861E-1,-3.1005905E-3,6.9380533E-3,-3.0617138E-2,-1.0862663E-2,4.2419374E-2,-3.7532855E-2,1.9772577E-3,-2.497829E-2,8.6771315E-3,2.2159683E-2,-1.2367559E-2,2.5484895E-2,7.0133684E-3,-1.0264715E-3,8.494472E-3,2.5874529E-2,-4.6138125E-4,-1.0902151E-2,4.286531E-3,-1.0316237E-3,9.602798E-3,4.8233192E-2,1.3314795E-2,3.6145497E-2,9.21988E-3],"categories":[],"categories_nodes":[],"categories_segments":[],"categories_sizes":[],"default_left":[0,0,0,0,0,0,0,0,0,0,0,0,0,0,0,0,0,0,0,0,0,0,0,0,0,0,0,0,0,0,0,0,0,0,0,0,0,0,0,0,0,0,0,0,0,0,0,0,0,0,0,0,0],"id":30,"left_children":[1,3,5,7,9,11,13,15,17,19,21,23,25,27,-1,29,-1,31,33,35,37,39,41,43,45,47,49,51,-1,-1,-1,-1,-1,-1,-1,-1,-1,-1,-1,-1,-1,-1,-1,-1,-1,-1,-1,-1,-1,-1,-1,-1,-1],"loss_changes":[3.1184375E0,2.1610212E0,1.9065197E0,1.1491356E0,2.367691E0,1.8350515E0,1.0481772E0,9.808293E-1,1.2231588E0,1.3030891E0,1.2599862E-1,4.5057786E-1,1.8435726E0,2.4710512E-1,0E0,8.3387643E-1,0E0,9.2698437E-1,2.4530458E-1,7.525501E-1,4.3494782E-1,2.5786161E-3,1.5485046E-2,2.0417023E-1,5.2017838E-2,1.7583127E0,5.369067E-3,1.9357443E-2,0E0,0E0,0E0,0E0,0E0,0E0,0E0,0E0,0E0,0E0,0E0,0E0,0E0,0E0,0E0,0E0,0E0,0E0,0E0,0E0,0E0,0E0,0E0,0E0,0E0],"parents":[2147483647,0,0,1,1,2,2,3,3,4,4,5,5,6,6,7,7,8,8,9,9,10,10,11,11,12,12,13,13,15,15,17,17,18,18,19,19,20,20,21,21,22,22,23,23,24,24,25,25,26,26,27,27],"right_children":[2,4,6,8,10,12,14,16,18,20,22,24,26,28,-1,30,-1,32,34,36,38,40,42,44,46,48,50,52,-1,-1,-1,-1,-1,-1,-1,-1,-1,-1,-1,-1,-1,-1,-1,-1,-1,-1,-1,-1,-1,-1,-1,-1,-1],"split_conditions":[1.5E-1,2.6666668E-1,1E0,1E0,1E0,4.17E-1,1E0,1E0,4.8731E-1,1E0,7.76494E-1,1E0,1E0,1E0,-3.1749815E-2,1E0,-4.14909E-2,4.32175E-1,1E0,1E0,1E-1,1E0,1E0,1E0,1E0,5.625E-1,1E0,1E0,-3.1005905E-3,6.9380533E-3,-3.0617138E-2,-1.0862663E-2,4.2419374E-2,-3.7532855E-2,1.9772577E-3,-2.497829E-2,8.6771315E-3,2.2159683E-2,-1.2367559E-2,2.5484895E-2,7.0133684E-3,-1.0264715E-3,8.494472E-3,2.5874529E-2,-4.6138125E-4,-1.0902151E-2,4.286531E-3,-1.0316237E-3,9.602798E-3,4.8233192E-2,1.3314795E-2,3.6145497E-2,9.21988E-3],"split_indices":[2055,2053,1434,1097,1691,2050,33,1903,2050,1032,2056,1385,1528,237,0,1563,0,2050,749,1597,2055,407,62,1578,695,2055,101,674,0,0,0,0,0,0,0,0,0,0,0,0,0,0,0,0,0,0,0,0,0,0,0,0,0],"split_type":[0,0,0,0,0,0,0,0,0,0,0,0,0,0,0,0,0,0,0,0,0,0,0,0,0,0,0,0,0,0,0,0,0,0,0,0,0,0,0,0,0,0,0,0,0,0,0,0,0,0,0,0,0],"sum_hessian":[1.263E3,2.09E2,1.054E3,1E2,1.09E2,1.037E3,1.7E1,8.1E1,1.9E1,9.9E1,1E1,3E1,1.007E3,1.6E1,1E0,7.9E1,2E0,8E0,1.1E1,9.1E1,8E0,7E0,3E0,2.6E1,4E0,1.002E3,5E0,1.5E1,1E0,7.6E1,3E0,6E0,2E0,1E1,1E0,8.7E1,4E0,5E0,3E0,6E0,1E0,2E0,1E0,2.4E1,2E0,2E0,2E0,8.91E2,1.11E2,4E0,1E0,1.4E1,1E0],"tree_param":{"num_deleted":"0","num_feature":"2057","num_nodes":"53","size_leaf_vector":"1"}},{"base_weights":[-5.4108216E-3,-4.1880213E-2,5.1346373E-2,-5.698048E-2,1.5382287E-1,5.917882E-2,-4.827106E-2,-9.254631E-2,4.2566977E-2,-2.2610752E-1,1.9550443E-1,6.5331295E-2,-4.531367E-1,-6.1693903E-2,-2.3414269E-1,5.6604818E-2,-3.9970046E-1,-3.4140235E-1,1.4014661E-2,2.0693518E-1,-1.5041332E-2,6.9570154E-2,-5.167727E-2,-4.6877623E-2,8.441253E-3,-6.284472E-3,2.091907E-2,-2.0595664E-2,4.5304146E-2,6.766104E-3,-1.246034E-2,-9.523296E-4,-4.724981E-2,-3.094153E-2,-6.3974094E-3,-4.713826E-3,1.801268E-2,1.183449E-2,2.528287E-3],"categories":[],"categories_nodes":[],"categories_segments":[],"categories_sizes":[],"default_left":[0,0,0,0,0,0,0,0,0,0,0,0,0,0,0,0,0,0,0,0,0,0,0,0,0,0,0,0,0,0,0,0,0,0,0,0,0,0,0],"id":31,"left_children":[1,3,5,7,9,11,-1,13,15,17,19,21,23,25,27,29,31,33,-1,35,-1,37,-1,-1,-1,-1,-1,-1,-1,-1,-1,-1,-1,-1,-1,-1,-1,-1,-1],"loss_changes":[2.6454132E0,2.3078861E0,2.5997949E0,2.5637121E0,9.310261E-1,1.589849E0,0E0,2.3140125E0,1.2084444E0,3.3740848E-1,2.6248813E-1,1.5223315E0,5.070759E-1,2.4128718E0,1.9178138E0,1.1180129E0,4.372025E-1,2.8373241E-2,0E0,2.5550795E-1,0E0,1.4471719E0,0E0,0E0,0E0,0E0,0E0,0E0,0E0,0E0,0E0,0E0,0E0,0E0,0E0,0E0,0E0,0E0,0E0],"parents":[2147483647,0,0,1,1,2,2,3,3,4,4,5,5,7,7,8,8,9,9,10,10,11,11,12,12,13,13,14,14,15,15,16,16,17,17,19,19,21,21],"right_children":[2,4,6,8,10,12,-1,14,16,18,20,22,24,26,28,30,32,34,-1,36,-1,38,-1,-1,-1,-1,-1,-1,-1,-1,-1,-1,-1,-1,-1,-1,-1,-1,-1],"split_conditions":[3.529412E-1,1E0,1E0,1E0,1E0,1E0,-4.827106E-2,1E0,1E0,1E0,1E0,1E0,1E0,1E0,1E0,1E0,1E0,1E0,1.4014661E-2,2.952E-1,-1.5041332E-2,6.9209164E-1,-5.167727E-2,-4.6877623E-2,8.441253E-3,-6.284472E-3,2.091907E-2,-2.0595664E-2,4.5304146E-2,6.766104E-3,-1.246034E-2,-9.523296E-4,-4.724981E-2,-3.094153E-2,-6.3974094E-3,-4.713826E-3,1.801268E-2,1.183449E-2,2.528287E-3],"split_indices":[2055,1627,635,1171,1057,278,0,1097,1195,194,90,1913,202,1691,1984,350,695,328,0,2049,0,2050,0,0,0,0,0,0,0,0,0,0,0,0,0,0,0,0,0],"split_type":[0,0,0,0,0,0,0,0,0,0,0,0,0,0,0,0,0,0,0,0,0,0,0,0,0,0,0,0,0,0,0,0,0,0,0,0,0,0,0],"sum_hessian":[1.276E3,7.77E2,4.99E2,7.22E2,5.5E1,4.94E2,5E0,5.32E2,1.9E2,5E0,5E1,4.89E2,5E0,4.38E2,9.4E1,1.85E2,5E0,4E0,1E0,4.9E1,1E0,4.87E2,2E0,4E0,1E0,4.17E2,2.1E1,9.2E1,2E0,1.64E2,2.1E1,2E0,3E0,3E0,1E0,3E0,4.6E1,1.58E2,3.29E2],"tree_param":{"num_deleted":"0","num_feature":"2057","num_nodes":"39","size_leaf_vector":"1"}},{"base_weights":[-3.4087915E-3,1.3440002E-2,-1.6260149E-1,2.2613017E-2,-2.1431455E-1,-2.2009332E-1,1.7541298E-1,-5.770309E-2,4.6432987E-2,-2.8108236E-1,2.553952E-1,-2.7834648E-1,1.7011221E-1,2.7582112E-1,-2.449708E-1,-4.14207E-2,-4.936139E-2,1.7430355E-1,1.9581428E-2,-3.3378154E-1,2.6348102E-1,2.3959817E-2,1.3953065E-3,-3.0787167E-1,4.334129E-1,2.5827932E-1,-2.3926027E-1,3.6296484E-1,-5.456528E-2,-2.3543354E-2,-3.8802957E-3,-2.0226447E-3,-4.1145645E-2,1.5256527E-2,-5.3691514E-2,9.4838656E-4,3.401659E-2,-1.4226117E-2,-3.5972342E-2,2.9747525E-2,8.272958E-3,-2.5835922E-2,1.7755555E-2,4.448637E-2,2.6165103E-3,9.211135E-4,2.7140409E-2,-2.7260618E-2,-1.4506149E-3,3.164625E-2,1.6872406E-4,1.4625358E-3,-6.79532E-3],"categories":[],"categories_nodes":[],"categories_segments":[],"categories_sizes":[],"default_left":[0,0,0,0,0,0,0,0,0,0,0,0,0,0,0,0,0,0,0,0,0,0,0,0,0,0,0,0,0,0,0,0,0,0,0,0,0,0,0,0,0,0,0,0,0,0,0,0,0,0,0,0,0],"id":32,"left_children":[1,3,5,7,9,11,13,15,17,19,21,23,25,27,29,31,-1,33,35,37,39,-1,-1,41,43,45,47,49,51,-1,-1,-1,-1,-1,-1,-1,-1,-1,-1,-1,-1,-1,-1,-1,-1,-1,-1,-1,-1,-1,-1,-1,-1],"loss_changes":[3.362988E0,2.3739948E0,2.3705761E0,2.089901E0,1.4516923E0,2.3886123E0,8.2734734E-1,2.251186E0,2.8876138E0,1.207169E0,5.7742566E-2,2.0247693E0,5.6710064E-1,4.5167184E-1,2.4485677E-2,1.849079E0,0E0,2.1527076E0,2.1794324E0,5.7059336E-1,3.0929178E-2,0E0,0E0,7.666521E-1,1.7842603E-1,2.3587799E-1,6.1152816E-2,1.4039028E-1,1.0404142E-2,0E0,0E0,0E0,0E0,0E0,0E0,0E0,0E0,0E0,0E0,0E0,0E0,0E0,0E0,0E0,0E0,0E0,0E0,0E0,0E0,0E0,0E0,0E0,0E0],"parents":[2147483647,0,0,1,1,2,2,3,3,4,4,5,5,6,6,7,7,8,8,9,9,10,10,11,11,12,12,13,13,14,14,15,15,17,17,18,18,19,19,20,20,23,23,24,24,25,25,26,26,27,27,28,28],"right_children":[2,4,6,8,10,12,14,16,18,20,22,24,26,28,30,32,-1,34,36,38,40,-1,-1,42,44,46,48,50,52,-1,-1,-1,-1,-1,